{"learner":{"attributes":{},"feature_names":["n_tracks","n_albums","playlist_reach","n_genres","n_subgenres","avg_popularity","max_popularity","std_popularity","recency_score","avg_danceability","avg_energy","avg_loudness","avg_speechiness","avg_acousticness","avg_instrumentalness","avg_liveness","avg_valence","avg_tempo","dominant_genre_edm","dominant_genre_latin","dominant_genre_pop","dominant_genre_r&b","dominant_genre_rap","dominant_genre_rock"],"feature_types":["int","int","int","int","int","float","int","float","float","float","float","float","float","float","float","float","float","float","i","i","i","i","i","i"],"gradient_booster":{"model":{"gbtree_model_param":{"num_parallel_tree":"1","num_trees":"80"},"iteration_indptr":[0,1,2,3,4,5,6,7,8,9,10,11,12,13,14,15,16,17,18,19,20,21,22,23,24,25,26,27,28,29,30,31,32,33,34,35,36,37,38,39,40,41,42,43,44,45,46,47,48,49,50,51,52,53,54,55,56,57,58,59,60,61,62,63,64,65,66,67,68,69,70,71,72,73,74,75,76,77,78,79,80],"tree_info":[0,0,0,0,0,0,0,0,0,0,0,0,0,0,0,0,0,0,0,0,0,0,0,0,0,0,0,0,0,0,0,0,0,0,0,0,0,0,0,0,0,0,0,0,0,0,0,0,0,0,0,0,0,0,0,0,0,0,0,0,0,0,0,0,0,0,0,0,0,0,0,0,0,0,0,0,0,0,0,0],"trees":[{"base_weights":[-5.07795E-2,-2.1187375E-1,1.1507201E-2,-2.967448E-1,4.6453282E-2,-1.5453383E-2,-1.1529194E-3,4.9456484E-3,-2.5141865E-3],"categories":[],"categories_nodes":[],"categories_segments":[],"categories_sizes":[],"default_left":[0,0,0,0,0,0,0,0,0],"id":0,"left_children":[1,3,-1,5,7,-1,-1,-1,-1],"loss_changes":[1.3073654E0,4.5347E-1,0E0,1.1175156E-2,6.881969E-2,0E0,0E0,0E0,0E0],"parents":[2147483647,0,0,1,1,3,3,4,4],"right_children":[2,4,-1,6,8,-1,-1,-1,-1],"split_conditions":[3E0,7.604167E-1,1.1507201E-2,6.6003615E-1,2.4118E-1,-1.5453383E-2,-1.1529194E-3,4.9456484E-3,-2.5141865E-3],"split_indices":[4,8,0,8,13,0,0,0,0],"split_type":[0,0,0,0,0,0,0,0,0],"sum_hessian":[1.8501362E1,1.25395775E1,5.961784E0,8.878905E0,3.6606727E0,7.8778195E0,1.0010858E0,2.3006055E0,1.3600671E0],"tree_param":{"num_deleted":"0","num_feature":"24","num_nodes":"9","size_leaf_vector":"1"}},{"base_weights":[2.7687646E-2,-2.4768373E-1,3.7787366E-1,5.4133264E-3,-3.1209132E-1,4.4156387E-2,2.3834972E-2,-1.878057E-2,-1.2446905E-3,-5.462031E-3,1.0477084E-2],"categories":[],"categories_nodes":[],"categories_segments":[],"categories_sizes":[],"default_left":[0,0,0,0,0,0,0,0,0,0,0],"id":1,"left_children":[1,3,5,-1,7,9,-1,-1,-1,-1,-1],"loss_changes":[4.5451007E0,7.8080773E-1,5.7385945E-1,0E0,3.8901854E-1,3.7360543E-1,0E0,0E0,0E0,0E0,0E0],"parents":[2147483647,0,0,1,1,2,2,4,4,5,5],"right_children":[2,4,6,-1,8,10,-1,-1,-1,-1,-1],"split_conditions":[6E0,3.2766666E-2,6.0231024E-1,5.4133264E-3,-5.009E0,1.4E1,2.3834972E-2,-1.878057E-2,-1.2446905E-3,-5.462031E-3,1.0477084E-2],"split_indices":[2,12,8,0,11,2,0,0,0,0,0],"split_type":[0,0,0,0,0,0,0,0,0,0,0],"sum_hessian":[3.7280243E1,2.1688705E1,1.5591535E1,2.8014767E0,1.888723E1,5.215102E0,1.0376432E1,1.4206006E1,4.6812234E0,3.5862236E0,1.6288788E0],"tree_param":{"num_deleted":"0","num_feature":"24","num_nodes":"11","size_leaf_vector":"1"}},{"base_weights":[4.575364E-3,-5.5834633E-1,4.096833E-1,-2.9267792E-2,-2.9711952E-3,-4.8761915E-2,4.894158E-1,-1.0058298E-2,6.919098E-3,2.462609E-3,2.5618041E-2],"categories":[],"categories_nodes":[],"categories_segments":[],"categories_sizes":[],"default_left":[0,0,0,0,0,0,0,0,0,0,0],"id":2,"left_children":[1,3,5,-1,-1,7,9,-1,-1,-1,-1],"loss_changes":[9.967998E0,7.281256E-2,1.0472527E0,0E0,0E0,3.7614384E-1,9.6802235E-2,0E0,0E0,0E0,0E0],"parents":[2147483647,0,0,1,1,2,2,5,5,6,6],"right_children":[2,4,6,-1,-1,8,10,-1,-1,-1,-1],"split_conditions":[6E0,6.4666664E1,4.85E1,-2.9267792E-2,-2.9711952E-3,2.2E1,6.992337E-1,-1.0058298E-2,6.919098E-3,2.462609E-3,2.5618041E-2],"split_indices":[2,5,5,0,0,0,8,0,0,0,0],"split_type":[0,0,0,0,0,0,0,0,0,0,0],"sum_hessian":[3.3695465E1,1.3309622E1,2.0385845E1,1.1804384E1,1.505238E0,3.3079543E0,1.707789E1,1.6167172E0,1.6912371E0,1.6256182E0,1.5452272E1],"tree_param":{"num_deleted":"0","num_feature":"24","num_nodes":"11","size_leaf_vector":"1"}},{"base_weights":[2.6492504E-2,-4.9488688E-1,3.611688E-1,-2.7176816E-2,1.1722863E-3,-9.962345E-2,4.4087464E-1,-9.968225E-3,4.725552E-3,2.3790734E-2,3.618642E-5],"categories":[],"categories_nodes":[],"categories_segments":[],"categories_sizes":[],"default_left":[0,0,0,0,0,0,0,0,0,0,0],"id":3,"left_children":[1,3,5,-1,-1,7,9,-1,-1,-1,-1],"loss_changes":[7.389596E0,4.839158E-1,1.1585071E0,0E0,0E0,2.4617726E-1,3.476162E-1,0E0,0E0,0E0,0E0],"parents":[2147483647,0,0,1,1,2,2,5,5,6,6],"right_children":[2,4,6,-1,-1,8,10,-1,-1,-1,-1],"split_conditions":[7E0,4E0,6.0231024E-1,-2.7176816E-2,1.1722863E-3,2.7E1,2.977135E1,-9.968225E-3,4.725552E-3,2.3790734E-2,3.618642E-5],"split_indices":[0,4,8,0,0,0,7,0,0,0,0],"split_type":[0,0,0,0,0,0,0,0,0,0,0],"sum_hessian":[3.2227253E1,1.1663547E1,2.0563707E1,1.0440502E1,1.2230439E0,2.8482244E0,1.7715483E1,1.7925568E0,1.0556678E0,1.6037283E1,1.6782004E0],"tree_param":{"num_deleted":"0","num_feature":"24","num_nodes":"11","size_leaf_vector":"1"}},{"base_weights":[-8.0195025E-2,-5.233166E-1,2.6880607E-1,-2.7629463E-2,-9.478597E-4,-7.115651E-3,3.2750738E-1,1.8389978E-2,-3.6522837E-3],"categories":[],"categories_nodes":[],"categories_segments":[],"categories_sizes":[],"default_left":[0,0,0,0,0,0,0,0,0],"id":4,"left_children":[1,3,5,-1,-1,-1,7,-1,-1],"loss_changes":[6.0668483E0,1.9827032E-1,7.809745E-1,0E0,0E0,0E0,4.7942185E-1,0E0,0E0],"parents":[2147483647,0,0,1,1,2,2,6,6],"right_children":[2,4,6,-1,-1,-1,8,-1,-1],"split_conditions":[8E0,4E0,7E1,-2.7629463E-2,-9.478597E-4,-7.115651E-3,2.2533333E-1,1.8389978E-2,-3.6522837E-3],"split_indices":[0,4,6,0,0,0,15,0,0],"split_type":[0,0,0,0,0,0,0,0,0],"sum_hessian":[2.9681522E1,1.1977066E1,1.7704454E1,1.0868157E1,1.1089091E0,1.3222408E0,1.6382214E1,1.5256405E1,1.1258093E0],"tree_param":{"num_deleted":"0","num_feature":"24","num_nodes":"9","size_leaf_vector":"1"}},{"base_weights":[7.07027E-2,-2.6958296E-2,4.123341E-1,-1.9958446E-2,4.634929E-1,-8.11177E-3,7.040266E-3,2.454003E-2,2.8494324E-3],"categories":[],"categories_nodes":[],"categories_segments":[],"categories_sizes":[],"default_left":[0,0,0,0,0,0,0,0,0],"id":5,"left_children":[1,-1,3,5,7,-1,-1,-1,-1],"loss_changes":[9.1038475E0,0E0,6.526642E-1,2.902297E-1,1.3461351E-1,0E0,0E0,0E0,0E0],"parents":[2147483647,0,0,2,2,3,3,4,4],"right_children":[2,-1,4,6,8,-1,-1,-1,-1],"split_conditions":[6E0,-2.6958296E-2,6.0231024E-1,1.3E1,2.1275E-1,-8.11177E-3,7.040266E-3,2.454003E-2,2.8494324E-3],"split_indices":[2,0,8,2,15,0,0,0,0],"split_type":[0,0,0,0,0,0,0,0,0],"sum_hessian":[3.3359753E1,1.0939638E1,2.2420115E1,2.6951787E0,1.9724936E1,1.405517E0,1.2896618E0,1.751171E1,2.2132266E0],"tree_param":{"num_deleted":"0","num_feature":"24","num_nodes":"9","size_leaf_vector":"1"}},{"base_weights":[-3.5308305E-2,-2.6449606E-2,3.0941024E-1,3.4765944E-1,-4.429552E-3,-4.2896444E-4,1.9381361E-2],"categories":[],"categories_nodes":[],"categories_segments":[],"categories_sizes":[],"default_left":[0,0,0,0,0,0,0],"id":6,"left_children":[1,-1,3,5,-1,-1,-1],"loss_changes":[6.566352E0,0E0,5.047872E-1,3.3040762E-1,0E0,0E0,0E0],"parents":[2147483647,0,0,2,2,3,3],"right_children":[2,-1,4,6,-1,-1,-1],"split_conditions":[6E0,-2.6449606E-2,6.497333E-2,5.954323E-1,-4.429552E-3,-4.2896444E-4,1.9381361E-2],"split_indices":[2,0,14,8,0,0,0],"split_type":[0,0,0,0,0,0,0],"sum_hessian":[2.877546E1,1.0732398E1,1.8043062E1,1.7038082E1,1.0049798E0,2.1148484E0,1.4923234E1],"tree_param":{"num_deleted":"0","num_feature":"24","num_nodes":"7","size_leaf_vector":"1"}},{"base_weights":[-1.0296909E-2,-2.4679152E-2,2.9056084E-1,-3.658233E-2,3.3919564E-1,-7.000703E-3,5.0278017E-3,-1.3578852E-3,1.9962301E-2],"categories":[],"categories_nodes":[],"categories_segments":[],"categories_sizes":[],"default_left":[0,0,0,0,0,0,0,0,0],"id":7,"left_children":[1,-1,3,5,7,-1,-1,-1,-1],"loss_changes":[5.784897E0,0E0,4.5389938E-1,1.7962801E-1,5.366206E-1,0E0,0E0,0E0,0E0],"parents":[2147483647,0,0,2,2,3,3,4,4],"right_children":[2,-1,4,6,8,-1,-1,-1,-1],"split_conditions":[8E0,-2.4679152E-2,5.954323E-1,1.2E1,5.495E-2,-7.000703E-3,5.0278017E-3,-1.3578852E-3,1.9962301E-2],"split_indices":[0,0,8,1,12,0,0,0,0],"split_type":[0,0,0,0,0,0,0,0,0],"sum_hessian":[2.9854225E1,1.0225482E1,1.9628744E1,2.7008026E0,1.6927942E1,1.4798396E0,1.2209631E0,2.7696595E0,1.4158282E1],"tree_param":{"num_deleted":"0","num_feature":"24","num_nodes":"9","size_leaf_vector":"1"}},{"base_weights":[-3.6976326E-2,-2.5560403E-2,2.840425E-1,3.3526108E-1,-5.5953562E-2,-2.0602574E-3,1.9198876E-2,3.1492345E-3,-6.269209E-3],"categories":[],"categories_nodes":[],"categories_segments":[],"categories_sizes":[],"default_left":[0,0,0,0,0,0,0,0,0],"id":8,"left_children":[1,-1,3,5,7,-1,-1,-1,-1],"loss_changes":[5.96087E0,0E0,5.0685084E-1,4.7029066E-1,1.005151E-1,0E0,0E0,0E0,0E0],"parents":[2147483647,0,0,2,2,3,3,4,4],"right_children":[2,-1,4,6,8,-1,-1,-1,-1],"split_conditions":[6E0,-2.5560403E-2,1.3410625E-1,6.0231024E-1,1.770593E1,-2.0602574E-3,1.9198876E-2,3.1492345E-3,-6.269209E-3],"split_indices":[2,0,12,8,7,0,0,0,0],"split_type":[0,0,0,0,0,0,0,0,0],"sum_hessian":[2.9386087E1,1.0666501E1,1.8719585E1,1.6329298E1,2.3902874E0,1.9593023E0,1.4369995E1,1.0521313E0,1.3381562E0],"tree_param":{"num_deleted":"0","num_feature":"24","num_nodes":"9","size_leaf_vector":"1"}},{"base_weights":[-1.2311788E-2,-2.520971E-2,3.1880572E-1,-7.4188705E-3,3.8020632E-1,2.0423124E-2,-1.6110158E-3],"categories":[],"categories_nodes":[],"categories_segments":[],"categories_sizes":[],"default_left":[0,0,0,0,0,0,0],"id":9,"left_children":[1,-1,3,-1,5,-1,-1],"loss_changes":[6.176828E0,0E0,9.355316E-1,0E0,3.1679606E-1,0E0,0E0],"parents":[2147483647,0,0,2,2,4,4],"right_children":[2,-1,4,-1,6,-1,-1],"split_conditions":[8E0,-2.520971E-2,6.9E1,-7.4188705E-3,2.3835E-1,2.0423124E-2,-1.6110158E-3],"split_indices":[0,0,6,0,15,0,0],"split_type":[0,0,0,0,0,0,0],"sum_hessian":[2.7990108E1,1.0209761E1,1.7780348E1,1.2426407E0,1.6537708E1,1.5522304E1,1.0154043E0],"tree_param":{"num_deleted":"0","num_feature":"24","num_nodes":"7","size_leaf_vector":"1"}},{"base_weights":[-5.304895E-2,-2.3676282E-2,2.3851635E-1,-7.4030295E-2,3.4337807E-1,-1.0446133E-2,5.611948E-3,2.505982E-3,1.9662274E-2],"categories":[],"categories_nodes":[],"categories_segments":[],"categories_sizes":[],"default_left":[0,0,0,0,0,0,0,0,0],"id":10,"left_children":[1,-1,3,5,7,-1,-1,-1,-1],"loss_changes":[4.518645E0,0E0,8.6027324E-1,3.6180374E-1,1.5938139E-1,0E0,0E0,0E0,0E0],"parents":[2147483647,0,0,2,2,3,3,4,4],"right_children":[2,-1,4,6,8,-1,-1,-1,-1],"split_conditions":[8E0,-2.3676282E-2,5.2666668E1,2.6E1,5.976842E-1,-1.0446133E-2,5.611948E-3,2.505982E-3,1.9662274E-2],"split_indices":[0,0,5,0,9,0,0,0,0],"split_type":[0,0,0,0,0,0,0,0,0],"sum_hessian":[2.7251574E1,9.881175E0,1.73704E1,4.7331276E0,1.2637271E1,2.3924687E0,2.3406587E0,3.2936106E0,9.34366E0],"tree_param":{"num_deleted":"0","num_feature":"24","num_nodes":"9","size_leaf_vector":"1"}},{"base_weights":[-9.624269E-3,-2.4118165E-2,3.0397776E-1,-9.4393566E-2,3.887331E-1,-9.751062E-3,4.97103E-3,2.1603057E-2,1.2469575E-3],"categories":[],"categories_nodes":[],"categories_segments":[],"categories_sizes":[],"default_left":[0,0,0,0,0,0,0,0,0],"id":11,"left_children":[1,-1,3,5,7,-1,-1,-1,-1],"loss_changes":[5.660636E0,0E0,9.6169925E-1,2.5426924E-1,2.6109624E-1,0E0,0E0,0E0,0E0],"parents":[2147483647,0,0,2,2,3,3,4,4],"right_children":[2,-1,4,6,8,-1,-1,-1,-1],"split_conditions":[8E0,-2.4118165E-2,6.0231024E-1,1.5E1,2.652799E1,-9.751062E-3,4.97103E-3,2.1603057E-2,1.2469575E-3],"split_indices":[0,0,8,1,7,0,0,0,0],"split_type":[0,0,0,0,0,0,0,0,0],"sum_hessian":[2.8237324E1,1.0188296E1,1.8049028E1,3.066609E0,1.4982419E1,1.9980754E0,1.0685335E0,1.25494995E1,2.4329193E0],"tree_param":{"num_deleted":"0","num_feature":"24","num_nodes":"9","size_leaf_vector":"1"}},{"base_weights":[-4.1950736E-3,-2.4728611E-2,3.2882413E-1,3.790154E-1,-3.554396E-3,1.0392213E-3,2.043902E-2],"categories":[],"categories_nodes":[],"categories_segments":[],"categories_sizes":[],"default_left":[0,0,0,0,0,0,0],"id":12,"left_children":[1,-1,3,5,-1,-1,-1],"loss_changes":[6.344169E0,0E0,5.9987307E-1,1.8548608E-1,0E0,0E0,0E0],"parents":[2147483647,0,0,2,2,3,3],"right_children":[2,-1,4,6,-1,-1,-1],"split_conditions":[6E0,-2.4728611E-2,2.1275E-1,5.495E-2,-3.554396E-3,1.0392213E-3,2.043902E-2],"split_indices":[2,0,15,12,0,0,0],"split_type":[0,0,0,0,0,0,0],"sum_hessian":[2.886934E1,1.0695068E1,1.8174274E1,1.6379782E1,1.7944921E0,1.9079869E0,1.4471795E1],"tree_param":{"num_deleted":"0","num_feature":"24","num_nodes":"7","size_leaf_vector":"1"}},{"base_weights":[9.613078E-3,-2.3988059E-2,3.0538073E-1,-7.714424E-3,3.6023486E-1,-7.2695897E-4,2.0250244E-2],"categories":[],"categories_nodes":[],"categories_segments":[],"categories_sizes":[],"default_left":[0,0,0,0,0,0,0],"id":13,"left_children":[1,-1,3,-1,5,-1,-1],"loss_changes":[5.8194833E0,0E0,9.07285E-1,0E0,4.287598E-1,0E0,0E0],"parents":[2147483647,0,0,2,2,4,4],"right_children":[2,-1,4,-1,6,-1,-1],"split_conditions":[8E0,-2.3988059E-2,6.9E1,-7.714424E-3,6.0231024E-1,-7.2695897E-4,2.0250244E-2],"split_indices":[0,0,6,0,8,0,0],"split_type":[0,0,0,0,0,0,0],"sum_hessian":[3.0145061E1,1.0184104E1,1.9960958E1,1.1617914E0,1.8799166E1,2.3663626E0,1.6432804E1],"tree_param":{"num_deleted":"0","num_feature":"24","num_nodes":"7","size_leaf_vector":"1"}},{"base_weights":[-3.8270883E-2,-4.534443E-1,3.0087104E-1,-2.3680145E-2,-1.3234221E-3,-6.255709E-2,3.5997194E-1,-4.777837E-3,1.0602231E-3,9.5336355E-4,1.8829165E-2],"categories":[],"categories_nodes":[],"categories_segments":[],"categories_sizes":[],"default_left":[0,0,0,0,0,0,0,0,0,0,0],"id":14,"left_children":[1,3,5,-1,-1,7,9,-1,-1,-1,-1],"loss_changes":[5.172498E0,7.790136E-2,5.541682E-1,0E0,0E0,2.9853929E-2,6.8425655E-2,0E0,0E0,0E0,0E0],"parents":[2147483647,0,0,1,1,2,2,5,5,6,6],"right_children":[2,4,6,-1,-1,8,10,-1,-1,-1,-1],"split_conditions":[6E0,8.1E1,7.3E1,-2.3680145E-2,-1.3234221E-3,1.5E1,1.04743E2,-4.777837E-3,1.0602231E-3,9.5336355E-4,1.8829165E-2],"split_indices":[1,6,6,0,0,0,17,0,0,0,0],"split_type":[0,0,0,0,0,0,0,0,0,0,0],"sum_hessian":[2.6891127E1,1.1332656E1,1.555847E1,1.0300337E1,1.0323192E0,2.1353302E0,1.342314E1,1.0267328E0,1.1085973E0,1.1226623E0,1.2300478E1],"tree_param":{"num_deleted":"0","num_feature":"24","num_nodes":"11","size_leaf_vector":"1"}},{"base_weights":[1.8175643E-2,-2.3569565E-2,3.20916E-1,1.0662383E-3,4.2402506E-1,8.371356E-3,-6.6903345E-3,1.5606693E-3,2.2556879E-2],"categories":[],"categories_nodes":[],"categories_segments":[],"categories_sizes":[],"default_left":[0,0,0,0,0,0,0,0,0],"id":15,"left_children":[1,-1,3,5,7,-1,-1,-1,-1],"loss_changes":[5.9792457E0,0E0,8.139508E-1,3.598588E-1,1.2878323E-1,0E0,0E0,0E0,0E0],"parents":[2147483647,0,0,2,2,3,3,4,4],"right_children":[2,-1,4,6,8,-1,-1,-1,-1],"split_conditions":[6E0,-2.3569565E-2,6.05E1,5.387059E-1,5.976842E-1,8.371356E-3,-6.6903345E-3,1.5606693E-3,2.2556879E-2],"split_indices":[2,0,5,9,9,0,0,0,0],"split_type":[0,0,0,0,0,0,0,0,0],"sum_hessian":[3.02392E1,1.0490086E1,1.9749115E1,6.0459538E0,1.3703161E1,2.166638E0,3.8793159E0,1.5792288E0,1.2123933E1],"tree_param":{"num_deleted":"0","num_feature":"24","num_nodes":"9","size_leaf_vector":"1"}},{"base_weights":[-2.6918517E-3,-2.334462E-2,3.4857133E-1,-1.041261E-3,3.7866876E-1,2.0120036E-2,-5.0946244E-4],"categories":[],"categories_nodes":[],"categories_segments":[],"categories_sizes":[],"default_left":[0,0,0,0,0,0,0],"id":16,"left_children":[1,-1,3,-1,5,-1,-1],"loss_changes":[6.1574755E0,0E0,2.786677E-1,0E0,2.0652413E-1,0E0,0E0],"parents":[2147483647,0,0,2,2,4,4],"right_children":[2,-1,4,-1,6,-1,-1],"split_conditions":[7E0,-2.334462E-2,4.15E1,-1.041261E-3,7.94E-1,2.0120036E-2,-5.0946244E-4],"split_indices":[2,0,5,0,10,0,0],"split_type":[0,0,0,0,0,0,0],"sum_hessian":[2.7772366E1,1.1254043E1,1.6518322E1,1.3605213E0,1.5157801E1,1.4121816E1,1.0359857E0],"tree_param":{"num_deleted":"0","num_feature":"24","num_nodes":"7","size_leaf_vector":"1"}},{"base_weights":[-2.3630943E-2,-4.1746125E-1,3.3868402E-1,-2.289202E-2,-6.1193876E-2,-1.6916009E-3,3.712011E-1,-6.553881E-3,2.8034209E-3,2.5710147E-3,1.9927831E-2],"categories":[],"categories_nodes":[],"categories_segments":[],"categories_sizes":[],"default_left":[0,0,0,0,0,0,0,0,0,0,0],"id":17,"left_children":[1,3,5,-1,7,-1,9,-1,-1,-1,-1],"loss_changes":[5.2980113E0,1.13918066E-1,2.9922247E-1,0E0,9.877126E-2,0E0,5.8219194E-2,0E0,0E0,0E0,0E0],"parents":[2147483647,0,0,1,1,2,2,4,4,6,6],"right_children":[2,4,6,-1,8,-1,10,-1,-1,-1,-1],"split_conditions":[7.6E1,1E1,4.3975905E-1,-2.289202E-2,1E0,-1.6916009E-3,1.1E1,-6.553881E-3,2.8034209E-3,2.5710147E-3,1.9927831E-2],"split_indices":[6,0,8,0,23,0,0,0,0,0,0],"split_type":[0,0,0,0,0,0,0,0,0,0,0],"sum_hessian":[2.7175026E1,1.2656546E1,1.451848E1,1.0087694E1,2.5688517E0,1.1493486E0,1.3369132E1,1.2404902E0,1.3283614E0,2.1881843E0,1.1180947E1],"tree_param":{"num_deleted":"0","num_feature":"24","num_nodes":"11","size_leaf_vector":"1"}},{"base_weights":[-2.4113761E-2,-3.7338072E-1,3.3295363E-1,-2.236078E-2,-5.0194826E-2,3.6849862E-1,-1.0942259E-3,2.694127E-3,-5.3415275E-3,-3.5828337E-4,1.9938597E-2],"categories":[],"categories_nodes":[],"categories_segments":[],"categories_sizes":[],"default_left":[0,0,0,0,0,0,0,0,0,0,0],"id":18,"left_children":[1,3,5,-1,7,9,-1,-1,-1,-1,-1],"loss_changes":[4.5568104E0,3.2464242E-1,2.7045488E-1,0E0,8.2050055E-2,2.0608687E-1,0E0,0E0,0E0,0E0,0E0],"parents":[2147483647,0,0,1,1,2,2,4,4,5,5],"right_children":[2,4,6,-1,8,10,-1,-1,-1,-1,-1],"split_conditions":[7.7E1,6.9E1,2.1433334E-1,-2.236078E-2,5.27E-1,5.5375E1,-1.0942259E-3,2.694127E-3,-5.3415275E-3,-3.5828337E-4,1.9938597E-2],"split_indices":[6,6,15,0,9,5,0,0,0,0,0],"split_type":[0,0,0,0,0,0,0,0,0,0,0],"sum_hessian":[2.6554485E1,1.3308392E1,1.3246094E1,9.271394E0,4.0369973E0,1.1865053E1,1.3810401E0,1.5083038E0,2.5286934E0,1.1694723E0,1.0695581E1],"tree_param":{"num_deleted":"0","num_feature":"24","num_nodes":"11","size_leaf_vector":"1"}},{"base_weights":[4.8920844E-2,-3.9032236E-1,3.9893073E-1,-2.1507785E-2,-2.3682976E-2,4.2875755E-1,-1.5912818E-3,-3.1877425E-3,1.8123145E-3,2.3941055E-3,2.2764536E-2],"categories":[],"categories_nodes":[],"categories_segments":[],"categories_sizes":[],"default_left":[0,0,0,0,0,0,0,0,0,0,0],"id":19,"left_children":[1,3,5,-1,7,9,-1,-1,-1,-1,-1],"loss_changes":[6.275537E0,2.1754599E-1,3.55659E-1,0E0,2.8587753E-2,1.05932236E-1,0E0,0E0,0E0,0E0,0E0],"parents":[2147483647,0,0,1,1,2,2,4,4,5,5],"right_children":[2,4,6,-1,8,10,-1,-1,-1,-1,-1],"split_conditions":[7.7E1,7.4E1,2.2533333E-1,-2.1507785E-2,5.9475E-1,5.62E-2,-1.5912818E-3,-3.1877425E-3,1.8123145E-3,2.3941055E-3,2.2764536E-2],"split_indices":[6,6,15,0,16,12,0,0,0,0,0],"split_type":[0,0,0,0,0,0,0,0,0,0,0],"sum_hessian":[3.075516E1,1.3383598E1,1.737156E1,1.1290728E1,2.0928707E0,1.6268297E1,1.1032628E0,1.062951E0,1.0299196E0,1.9727764E0,1.4295521E1],"tree_param":{"num_deleted":"0","num_feature":"24","num_nodes":"11","size_leaf_vector":"1"}},{"base_weights":[-7.575496E-3,-4.1530946E-1,3.5008335E-1,1.979278E-4,-2.2336757E-2,-1.2729843E-3,3.867516E-1,2.0108841E-2,1.7021255E-3],"categories":[],"categories_nodes":[],"categories_segments":[],"categories_sizes":[],"default_left":[0,0,0,0,0,0,0,0,0],"id":20,"left_children":[1,3,5,-1,-1,-1,7,-1,-1],"loss_changes":[5.597452E0,2.4460483E-1,3.3159447E-1,0E0,0E0,0E0,3.4859896E-2,0E0,0E0],"parents":[2147483647,0,0,1,1,2,2,6,6],"right_children":[2,4,6,-1,-1,-1,8,-1,-1],"split_conditions":[7.7E1,1.758E-3,1.1E1,1.979278E-4,-2.2336757E-2,-1.2729843E-3,1.7163333E-1,2.0108841E-2,1.7021255E-3],"split_indices":[6,13,0,0,0,0,12,0,0],"split_type":[0,0,0,0,0,0,0,0,0],"sum_hessian":[2.8398472E1,1.2893656E1,1.5504816E1,1.2037607E0,1.1689895E1,1.5151873E0,1.3989629E1,1.2731577E1,1.2580521E0],"tree_param":{"num_deleted":"0","num_feature":"24","num_nodes":"9","size_leaf_vector":"1"}},{"base_weights":[1.7521815E-2,-4.2718315E-1,3.2342497E-1,-2.217834E-2,-1.4974113E-3,3.70434E-1,-1.3220803E-2,-2.3570811E-4,2.0098984E-2,-2.8977552E-3,2.1862246E-3],"categories":[],"categories_nodes":[],"categories_segments":[],"categories_sizes":[],"default_left":[0,0,0,0,0,0,0,0,0,0,0],"id":21,"left_children":[1,3,5,-1,-1,7,9,-1,-1,-1,-1],"loss_changes":[5.400211E0,3.942108E-2,3.941002E-1,0E0,0E0,2.5404596E-1,3.225848E-2,0E0,0E0,0E0,0E0],"parents":[2147483647,0,0,1,1,2,2,5,5,6,6],"right_children":[2,4,6,-1,-1,8,10,-1,-1,-1,-1],"split_conditions":[7E0,6.6333336E1,1.99E-1,-2.217834E-2,-1.4974113E-3,4.667519E-1,1.1E1,-2.3570811E-4,2.0098984E-2,-2.8977552E-3,2.1862246E-3],"split_indices":[2,5,15,0,0,8,2,0,0,0,0],"split_type":[0,0,0,0,0,0,0,0,0,0,0],"sum_hessian":[2.9618628E1,1.126291E1,1.8355717E1,1.02567005E1,1.0062094E0,1.5666254E1,2.6894636E0,1.5450455E0,1.4121208E1,1.4565679E0,1.2328957E0],"tree_param":{"num_deleted":"0","num_feature":"24","num_nodes":"11","size_leaf_vector":"1"}},{"base_weights":[1.9971257E-2,-3.9510462E-1,3.5695598E-1,-4.2374364E-1,3.539894E-4,-2.2179165E-3,3.9561138E-1,-1.5966765E-3,-2.1964429E-2,3.4874174E-4,2.1066835E-2],"categories":[],"categories_nodes":[],"categories_segments":[],"categories_sizes":[],"default_left":[0,0,0,0,0,0,0,0,0,0,0],"id":22,"left_children":[1,3,5,7,-1,-1,9,-1,-1,-1,-1],"loss_changes":[5.502434E0,2.1934414E-1,4.2213964E-1,3.1232357E-2,0E0,0E0,1.8692303E-1,0E0,0E0,0E0,0E0],"parents":[2147483647,0,0,1,1,2,2,3,3,6,6],"right_children":[2,4,6,8,-1,-1,10,-1,-1,-1,-1],"split_conditions":[7.7E1,1E1,1.1E1,2.1E-3,3.539894E-4,-2.2179165E-3,5.52E-2,-1.5966765E-3,-2.1964429E-2,3.4874174E-4,2.1066835E-2],"split_indices":[6,2,0,13,0,0,12,0,0,0,0],"split_type":[0,0,0,0,0,0,0,0,0,0,0],"sum_hessian":[2.9296944E1,1.2741025E1,1.6555918E1,1.1643855E1,1.0971701E0,1.3897803E0,1.5166139E1,1.0271027E0,1.0616752E1,1.3361614E0,1.3829977E1],"tree_param":{"num_deleted":"0","num_feature":"24","num_nodes":"11","size_leaf_vector":"1"}},{"base_weights":[-8.169576E-3,-3.8495567E-1,3.0369163E-1,-2.070864E-2,-5.5119142E-2,-4.8784144E-2,3.5843858E-1,-4.5263967E-3,1.3307495E-3,-5.7865707E-3,2.9212255E-3,9.950245E-4,1.9716827E-2],"categories":[],"categories_nodes":[],"categories_segments":[],"categories_sizes":[],"default_left":[0,0,0,0,0,0,0,0,0,0,0,0,0],"id":23,"left_children":[1,3,5,-1,7,9,11,-1,-1,-1,-1,-1,-1],"loss_changes":[4.4220405E0,4.9630404E-2,4.8617554E-1,0E0,3.2741174E-2,8.533396E-2,1.854024E-1,0E0,0E0,0E0,0E0,0E0,0E0],"parents":[2147483647,0,0,1,1,2,2,4,4,5,5,6,6],"right_children":[2,4,6,-1,8,10,12,-1,-1,-1,-1,-1,-1],"split_conditions":[1.1E1,8E0,5.954323E-1,-2.070864E-2,1.2358023E2,1.1E1,5.4666668E1,-4.5263967E-3,1.3307495E-3,-5.7865707E-3,2.9212255E-3,9.950245E-4,1.9716827E-2],"split_indices":[0,0,8,0,17,1,5,0,0,0,0,0,0],"split_type":[0,0,0,0,0,0,0,0,0,0,0,0,0],"sum_hessian":[2.7658203E1,1.1994598E1,1.5663605E1,9.844145E0,2.1504538E0,2.179026E0,1.3484579E1,1.1250913E0,1.0253625E0,1.0966991E0,1.0823268E0,2.0378938E0,1.1446685E1],"tree_param":{"num_deleted":"0","num_feature":"24","num_nodes":"13","size_leaf_vector":"1"}},{"base_weights":[2.9007331E-3,-2.1063022E-2,2.837663E-1,-2.154768E-5,3.6724937E-1,-4.852607E-3,4.933598E-3,-4.537416E-4,1.9941151E-2],"categories":[],"categories_nodes":[],"categories_segments":[],"categories_sizes":[],"default_left":[0,0,0,0,0,0,0,0,0],"id":24,"left_children":[1,-1,3,5,7,-1,-1,-1,-1],"loss_changes":[4.6391625E0,0E0,5.543531E-1,1.466901E-1,2.3291111E-1,0E0,0E0,0E0,0E0],"parents":[2147483647,0,0,2,2,3,3,4,4],"right_children":[2,-1,4,6,8,-1,-1,-1,-1],"split_conditions":[6E0,-2.1063022E-2,1E1,8E1,4.3333332E1,-4.852607E-3,4.933598E-3,-4.537416E-4,1.9941151E-2],"split_indices":[2,0,2,6,5,0,0,0,0],"split_type":[0,0,0,0,0,0,0,0,0],"sum_hessian":[2.8924185E1,1.0527023E1,1.8397161E1,5.318034E0,1.3079127E1,2.7235394E0,2.5944946E0,1.2881894E0,1.1790937E1],"tree_param":{"num_deleted":"0","num_feature":"24","num_nodes":"9","size_leaf_vector":"1"}},{"base_weights":[-2.086616E-2,-3.4247148E-1,3.4057316E-1,-2.0184107E-2,-3.543407E-2,1.857478E-2,6.72119E-2,-5.567271E-3,4.2806417E-3,-9.4337057E-4,5.259409E-3],"categories":[],"categories_nodes":[],"categories_segments":[],"categories_sizes":[],"default_left":[0,0,0,0,0,0,0,0,0,0,0],"id":25,"left_children":[1,3,5,-1,7,-1,9,-1,-1,-1,-1],"loss_changes":[4.2775E0,2.9140162E-1,2.2837639E-2,0E0,1.2752259E-1,0E0,3.5682295E-2,0E0,0E0,0E0,0E0],"parents":[2147483647,0,0,1,1,2,2,4,4,6,6],"right_children":[2,4,6,-1,8,-1,10,-1,-1,-1,-1],"split_conditions":[1E1,7E0,2.5294268E1,-2.0184107E-2,3.4533334E-1,1.857478E-2,1.7E1,-5.567271E-3,4.2806417E-3,-9.4337057E-4,5.259409E-3],"split_indices":[2,2,7,0,13,0,2,0,0,0,0],"split_type":[0,0,0,0,0,0,0,0,0,0,0],"sum_hessian":[2.6781584E1,1.4310568E1,1.2471016E1,1.0619625E1,3.6909432E0,9.591119E0,2.8798974E0,2.5146687E0,1.1762748E0,1.6517762E0,1.228121E0],"tree_param":{"num_deleted":"0","num_feature":"24","num_nodes":"11","size_leaf_vector":"1"}},{"base_weights":[2.375891E-2,-3.7767312E-1,3.3936092E-1,-2.05835E-2,-1.5789624E-3,3.7435555E-1,-3.0985207E-3,5.965274E-4,2.0096501E-2],"categories":[],"categories_nodes":[],"categories_segments":[],"categories_sizes":[],"default_left":[0,0,0,0,0,0,0,0,0],"id":26,"left_children":[1,3,5,-1,-1,7,-1,-1,-1],"loss_changes":[4.9238453E0,1.379199E-1,4.1879368E-1,0E0,0E0,1.8130374E-1,0E0,0E0,0E0],"parents":[2147483647,0,0,1,1,2,2,5,5],"right_children":[2,4,6,-1,-1,8,-1,-1,-1],"split_conditions":[8E0,6E0,5.355423E-2,-2.05835E-2,-1.5789624E-3,5E1,-3.0985207E-3,5.965274E-4,2.0096501E-2],"split_indices":[2,2,14,0,0,5,0,0,0],"split_type":[0,0,0,0,0,0,0,0,0],"sum_hessian":[2.8806257E1,1.2246221E1,1.6560036E1,1.0288232E1,1.9579887E0,1.5540996E1,1.0190411E0,1.6052823E0,1.3935714E1],"tree_param":{"num_deleted":"0","num_feature":"24","num_nodes":"9","size_leaf_vector":"1"}},{"base_weights":[-1.40109295E-2,-2.0019522E-2,2.8164127E-1,3.3180577E-1,-4.737534E-2,6.746993E-4,1.7657852E-2,-3.2807142E-3,5.080423E-4],"categories":[],"categories_nodes":[],"categories_segments":[],"categories_sizes":[],"default_left":[0,0,0,0,0,0,0,0,0],"id":27,"left_children":[1,-1,3,5,7,-1,-1,-1,-1],"loss_changes":[4.197906E0,0E0,4.244995E-1,1.0400915E-1,1.0834489E-2,0E0,0E0,0E0,0E0],"parents":[2147483647,0,0,2,2,3,3,4,4],"right_children":[2,-1,4,6,8,-1,-1,-1,-1],"split_conditions":[7E0,-2.0019522E-2,2.1433334E-1,9E0,1.3476667E-1,6.746993E-4,1.7657852E-2,-3.2807142E-3,5.080423E-4],"split_indices":[2,0,15,2,13,0,0,0,0],"split_type":[0,0,0,0,0,0,0,0,0],"sum_hessian":[2.6812555E1,1.0855067E1,1.5957488E1,1.3809582E1,2.1479063E0,1.3810095E0,1.2428572E1,1.0978781E0,1.0500282E0],"tree_param":{"num_deleted":"0","num_feature":"24","num_nodes":"9","size_leaf_vector":"1"}},{"base_weights":[-1.1367727E-2,-3.8087708E-1,2.8898963E-1,-2.0085E-2,-1.9213994E-3,-5.282499E-3,3.2743627E-1,3.8177352E-3,-4.122357E-3,1.2250543E-3,1.7198836E-2],"categories":[],"categories_nodes":[],"categories_segments":[],"categories_sizes":[],"default_left":[0,0,0,0,0,0,0,0,0,0,0],"id":28,"left_children":[1,3,5,-1,-1,7,9,-1,-1,-1,-1],"loss_changes":[4.1457963E0,4.1779518E-2,2.4299073E-1,0E0,0E0,7.755112E-2,5.0052404E-2,0E0,0E0,0E0,0E0],"parents":[2147483647,0,0,1,1,2,2,5,5,6,6],"right_children":[2,4,6,-1,-1,8,10,-1,-1,-1,-1],"split_conditions":[8E0,6E0,6.0231024E-1,-2.0085E-2,-1.9213994E-3,4.8016667E-2,5.708E-2,3.8177352E-3,-4.122357E-3,1.2250543E-3,1.7198836E-2],"split_indices":[2,2,8,0,0,12,12,0,0,0,0],"split_type":[0,0,0,0,0,0,0,0,0,0,0],"sum_hessian":[2.7395851E1,1.1682842E1,1.5713009E1,1.01976595E1,1.4851823E0,2.3140645E0,1.3398944E1,1.1499466E0,1.164118E0,1.336042E0,1.2062902E1],"tree_param":{"num_deleted":"0","num_feature":"24","num_nodes":"11","size_leaf_vector":"1"}},{"base_weights":[2.0377489E-2,-3.6243704E-1,3.184372E-1,-1.939482E-2,-5.021288E-4,-1.3880323E-3,3.5224938E-1,8.413253E-4,1.8397879E-2],"categories":[],"categories_nodes":[],"categories_segments":[],"categories_sizes":[],"default_left":[0,0,0,0,0,0,0,0,0],"id":29,"left_children":[1,3,5,-1,-1,-1,7,-1,-1],"loss_changes":[4.2750955E0,1.2879181E-1,2.933519E-1,0E0,0E0,0E0,7.121062E-2,0E0,0E0],"parents":[2147483647,0,0,1,1,2,2,6,6],"right_children":[2,4,6,-1,-1,-1,8,-1,-1],"split_conditions":[8E0,7E0,7.7E1,-1.939482E-2,-5.021288E-4,-1.3880323E-3,1.4E1,8.413253E-4,1.8397879E-2],"split_indices":[2,2,6,0,0,0,0,0,0],"split_type":[0,0,0,0,0,0,0,0,0],"sum_hessian":[2.740996E1,1.1526237E1,1.5883723E1,1.0279827E1,1.2464092E0,1.4929105E0,1.4390812E1,1.1070715E0,1.3283741E1],"tree_param":{"num_deleted":"0","num_feature":"24","num_nodes":"9","size_leaf_vector":"1"}},{"base_weights":[-2.8418265E-2,-3.595572E-1,2.5462884E-1,-1.935312E-2,-8.112881E-4,3.0932885E-1,-4.963741E-2,-1.1825388E-3,1.7136166E-2,1.1333609E-3,-4.0737805E-3],"categories":[],"categories_nodes":[],"categories_segments":[],"categories_sizes":[],"default_left":[0,0,0,0,0,0,0,0,0,0,0],"id":30,"left_children":[1,3,5,-1,-1,7,9,-1,-1,-1,-1],"loss_changes":[3.4058838E0,1.2506056E-1,4.0773392E-1,0E0,0E0,2.3564231E-1,2.6128422E-2,0E0,0E0,0E0,0E0],"parents":[2147483647,0,0,1,1,2,2,5,5,6,6],"right_children":[2,4,6,-1,-1,8,10,-1,-1,-1,-1],"split_conditions":[8E0,6.54E1,2.1275E-1,-1.935312E-2,-8.112881E-4,5.7570976E-1,7.046332E-1,-1.1825388E-3,1.7136166E-2,1.1333609E-3,-4.0737805E-3],"split_indices":[2,5,15,0,0,8,8,0,0,0,0],"split_type":[0,0,0,0,0,0,0,0,0,0,0],"sum_hessian":[2.6453976E1,1.1568433E1,1.4885543E1,1.01207695E1,1.4476632E0,1.2546737E1,2.3388062E0,1.2765921E0,1.1270144E1,1.1553199E0,1.1834863E0],"tree_param":{"num_deleted":"0","num_feature":"24","num_nodes":"11","size_leaf_vector":"1"}},{"base_weights":[-6.851094E-2,-1.959087E-2,2.505654E-1,2.3144035E-2,2.986065E-1,-3.685847E-3,5.2678837E-3,9.4319315E-4,1.5975103E-2],"categories":[],"categories_nodes":[],"categories_segments":[],"categories_sizes":[],"default_left":[0,0,0,0,0,0,0,0,0],"id":31,"left_children":[1,-1,3,5,7,-1,-1,-1,-1],"loss_changes":[3.4225059E0,0E0,1.5503109E-1,1.0609434E-1,5.1151156E-2,0E0,0E0,0E0,0E0],"parents":[2147483647,0,0,2,2,3,3,4,4],"right_children":[2,-1,4,6,8,-1,-1,-1,-1],"split_conditions":[8E0,-1.959087E-2,8E1,2.2E1,6.013333E-1,-3.685847E-3,5.2678837E-3,9.4319315E-4,1.5975103E-2],"split_indices":[2,0,6,0,9,0,0,0,0],"split_type":[0,0,0,0,0,0,0,0,0],"sum_hessian":[2.3418406E1,1.1065916E1,1.2352489E1,3.4463956E0,8.906094E0,1.8194883E0,1.6269073E0,1.2802597E0,7.625834E0],"tree_param":{"num_deleted":"0","num_feature":"24","num_nodes":"9","size_leaf_vector":"1"}},{"base_weights":[7.6769413E-3,-1.7662814E-2,3.1254524E-1,3.3653077E-1,-9.959199E-4,1.7637724E-2,1.0974827E-3],"categories":[],"categories_nodes":[],"categories_segments":[],"categories_sizes":[],"default_left":[0,0,0,0,0,0,0],"id":32,"left_children":[1,-1,3,5,-1,-1,-1],"loss_changes":[3.99925E0,0E0,1.900971E-1,5.6182623E-2,0E0,0E0,0E0],"parents":[2147483647,0,0,2,2,3,3],"right_children":[2,-1,4,6,-1,-1,-1],"split_conditions":[7.7E1,-1.7662814E-2,2.24E-1,2.8875402E1,-9.959199E-4,1.7637724E-2,1.0974827E-3],"split_indices":[6,0,15,7,0,0,0],"split_type":[0,0,0,0,0,0,0],"sum_hessian":[2.6327684E1,1.1691978E1,1.4635706E1,1.3593816E1,1.0418898E0,1.2350156E1,1.2436603E0],"tree_param":{"num_deleted":"0","num_feature":"24","num_nodes":"7","size_leaf_vector":"1"}},{"base_weights":[1.8585932E-2,-3.632782E-1,2.994446E-1,-1.9145189E-2,-8.89156E-4,-3.618632E-2,3.5325894E-1,-4.724361E-3,2.4421962E-3,1.8688323E-2,2.8783295E-4],"categories":[],"categories_nodes":[],"categories_segments":[],"categories_sizes":[],"default_left":[0,0,0,0,0,0,0,0,0,0,0],"id":33,"left_children":[1,3,5,-1,-1,7,9,-1,-1,-1,-1],"loss_changes":[4.0896444E0,7.627392E-2,4.5748925E-1,0E0,0E0,6.0485993E-2,1.2638235E-1,0E0,0E0,0E0,0E0],"parents":[2147483647,0,0,1,1,2,2,5,5,6,6],"right_children":[2,4,6,-1,-1,8,10,-1,-1,-1,-1],"split_conditions":[7.7E1,7.5E1,1.5E1,-1.9145189E-2,-8.89156E-4,9.71E-2,2.1433334E-1,-4.724361E-3,2.4421962E-3,1.8688323E-2,2.8783295E-4],"split_indices":[6,6,0,0,0,12,15,0,0,0,0],"split_type":[0,0,0,0,0,0,0,0,0,0,0],"sum_hessian":[2.8060518E1,1.1270084E1,1.6790434E1,1.0152029E1,1.1180557E0,2.5464585E0,1.4243976E1,1.1807698E0,1.3656886E0,1.3093383E1,1.1505926E0],"tree_param":{"num_deleted":"0","num_feature":"24","num_nodes":"11","size_leaf_vector":"1"}},{"base_weights":[1.594675E-2,-1.8324153E-2,2.8197685E-1,3.1155962E-1,-2.0280706E-3,1.6913017E-2,1.0230928E-3],"categories":[],"categories_nodes":[],"categories_segments":[],"categories_sizes":[],"default_left":[0,0,0,0,0,0,0],"id":34,"left_children":[1,-1,3,5,-1,-1,-1],"loss_changes":[3.813953E0,0E0,2.7252138E-1,1.2606621E-1,0E0,0E0,0E0],"parents":[2147483647,0,0,2,2,3,3],"right_children":[2,-1,4,6,-1,-1,-1],"split_conditions":[1.1E1,-1.8324153E-2,2.2533333E-1,1.241625E-1,-2.0280706E-3,1.6913017E-2,1.0230928E-3],"split_indices":[0,0,15,12,0,0,0],"split_type":[0,0,0,0,0,0,0],"sum_hessian":[2.7409319E1,1.0470098E1,1.6939222E1,1.5671999E1,1.2672229E0,1.3613253E1,2.0587466E0],"tree_param":{"num_deleted":"0","num_feature":"24","num_nodes":"7","size_leaf_vector":"1"}},{"base_weights":[-2.1673698E-2,-3.5166642E-1,2.8203502E-1,-1.8479018E-2,-7.2986644E-4,1.294487E-2,1.6961439E-2,-4.423532E-3,4.690114E-3],"categories":[],"categories_nodes":[],"categories_segments":[],"categories_sizes":[],"default_left":[0,0,0,0,0,0,0,0,0],"id":35,"left_children":[1,3,5,-1,-1,7,-1,-1,-1],"loss_changes":[3.5195558E0,7.3770285E-2,2.6253557E-1,0E0,0E0,1.10691905E-1,0E0,0E0,0E0],"parents":[2147483647,0,0,1,1,2,2,5,5],"right_children":[2,4,6,-1,-1,8,-1,-1,-1],"split_conditions":[9E0,8E1,2E1,-1.8479018E-2,-7.2986644E-4,5.8025E-1,1.6961439E-2,-4.423532E-3,4.690114E-3],"split_indices":[2,6,0,0,0,16,0,0,0],"split_type":[0,0,0,0,0,0,0,0,0],"sum_hessian":[2.5169573E1,1.1684415E1,1.3485158E1,1.0636842E1,1.0475724E0,3.438601E0,1.0046557E1,1.3165433E0,2.1220577E0],"tree_param":{"num_deleted":"0","num_feature":"24","num_nodes":"9","size_leaf_vector":"1"}},{"base_weights":[-5.099834E-3,-1.717396E-2,2.5103587E-1,-3.3425228E-3,2.9301283E-1,8.1231986E-4,1.5423389E-2],"categories":[],"categories_nodes":[],"categories_segments":[],"categories_sizes":[],"default_left":[0,0,0,0,0,0,0],"id":36,"left_children":[1,-1,3,-1,5,-1,-1],"loss_changes":[3.112529E0,0E0,3.7145674E-1,0E0,5.6364536E-2,0E0,0E0],"parents":[2147483647,0,0,2,2,4,4],"right_children":[2,-1,4,-1,6,-1,-1],"split_conditions":[1.1E1,-1.717396E-2,4.15E1,-3.3425228E-3,4.3246445E-1,8.1231986E-4,1.5423389E-2],"split_indices":[0,0,5,0,8,0,0],"split_type":[0,0,0,0,0,0,0],"sum_hessian":[2.5937683E1,1.0440187E1,1.5497496E1,1.4621395E0,1.40353565E1,1.2847196E0,1.2750637E1],"tree_param":{"num_deleted":"0","num_feature":"24","num_nodes":"7","size_leaf_vector":"1"}},{"base_weights":[4.6867426E-2,-3.4694475E-1,3.2617736E-1,-1.7991701E-2,-1.7491122E-3,-2.229356E-3,3.5756177E-1,1.9002091E-2,1.11722E-3],"categories":[],"categories_nodes":[],"categories_segments":[],"categories_sizes":[],"default_left":[0,0,0,0,0,0,0,0,0],"id":37,"left_children":[1,3,5,-1,-1,-1,7,-1,-1],"loss_changes":[4.174795E0,1.5466213E-3,3.3306623E-1,0E0,0E0,0E0,1.1298704E-1,0E0,0E0],"parents":[2147483647,0,0,1,1,2,2,6,6],"right_children":[2,4,6,-1,-1,-1,8,-1,-1],"split_conditions":[9E0,6.5E1,4.13E1,-1.7991701E-2,-1.7491122E-3,-2.229356E-3,2.1275E-1,1.9002091E-2,1.11722E-3],"split_indices":[2,5,5,0,0,0,15,0,0],"split_type":[0,0,0,0,0,0,0,0,0],"sum_hessian":[2.7810097E1,1.1037316E1,1.677278E1,9.862564E0,1.1747528E0,1.1448259E0,1.56279545E1,1.4019222E1,1.608732E0],"tree_param":{"num_deleted":"0","num_feature":"24","num_nodes":"9","size_leaf_vector":"1"}},{"base_weights":[4.1621607E-3,-3.2572293E-1,2.8096762E-1,-1.7677596E-2,-2.0826608E-4,1.7759785E-4,3.034493E-1,1.3639029E-3,1.5616161E-2],"categories":[],"categories_nodes":[],"categories_segments":[],"categories_sizes":[],"default_left":[0,0,0,0,0,0,0,0,0],"id":38,"left_children":[1,3,5,-1,-1,-1,7,-1,-1],"loss_changes":[3.256871E0,1.3851988E-1,1.15312696E-1,0E0,0E0,0E0,1.1307001E-3,0E0,0E0],"parents":[2147483647,0,0,1,1,2,2,6,6],"right_children":[2,4,6,-1,-1,-1,8,-1,-1],"split_conditions":[9E0,6.521429E1,4.3333332E1,-1.7677596E-2,-2.0826608E-4,1.7759785E-4,4.618E-2,1.3639029E-3,1.5616161E-2],"split_indices":[2,5,5,0,0,0,12,0,0],"split_type":[0,0,0,0,0,0,0,0,0],"sum_hessian":[2.5655575E1,1.1302328E1,1.4353247E1,9.944224E0,1.3581041E0,1.5100293E0,1.2843218E1,1.033974E0,1.1809243E1],"tree_param":{"num_deleted":"0","num_feature":"24","num_nodes":"9","size_leaf_vector":"1"}},{"base_weights":[1.8795922E-2,-1.7032309E-2,2.9597282E-1,1.395358E-2,3.3110768E-1,3.085619E-3,-2.2536197E-3,1.7094793E-2,1.6164922E-3],"categories":[],"categories_nodes":[],"categories_segments":[],"categories_sizes":[],"default_left":[0,0,0,0,0,0,0,0,0],"id":39,"left_children":[1,-1,3,5,7,-1,-1,-1,-1],"loss_changes":[3.4905672E0,0E0,1.7111099E-1,3.47438E-2,2.0122528E-4,0E0,0E0,0E0,0E0],"parents":[2147483647,0,0,2,2,3,3,4,4],"right_children":[2,-1,4,6,8,-1,-1,-1,-1],"split_conditions":[7.6E1,-1.7032309E-2,4.3975905E-1,2.0672043E1,-4.0944E0,3.085619E-3,-2.2536197E-3,1.7094793E-2,1.6164922E-3],"split_indices":[6,0,8,7,11,0,0,0,0],"split_type":[0,0,0,0,0,0,0,0,0],"sum_hessian":[2.4975769E1,1.0375688E1,1.4600082E1,2.391311E0,1.2208771E1,1.1960263E0,1.1952846E0,1.1086876E1,1.1218951E0],"tree_param":{"num_deleted":"0","num_feature":"24","num_nodes":"9","size_leaf_vector":"1"}},{"base_weights":[-5.4127523E-3,-1.6002147E-2,2.267865E-1,-3.3633045E-3,2.6749045E-1,-2.7958216E-4,1.4825353E-2],"categories":[],"categories_nodes":[],"categories_segments":[],"categories_sizes":[],"default_left":[0,0,0,0,0,0,0],"id":40,"left_children":[1,-1,3,-1,5,-1,-1],"loss_changes":[2.568595E0,0E0,3.3290935E-1,0E0,1.5753114E-1,0E0,0E0],"parents":[2147483647,0,0,2,2,4,4],"right_children":[2,-1,4,-1,6,-1,-1],"split_conditions":[1.2E1,-1.6002147E-2,4.15E1,-3.3633045E-3,5.925E-2,-2.7958216E-4,1.4825353E-2],"split_indices":[0,0,5,0,12,0,0],"split_type":[0,0,0,0,0,0,0],"sum_hessian":[2.5191372E1,9.893761E0,1.5297612E1,1.4633403E0,1.3834271E1,1.7164876E0,1.21177845E1],"tree_param":{"num_deleted":"0","num_feature":"24","num_nodes":"7","size_leaf_vector":"1"}},{"base_weights":[1.590728E-2,-1.6496288E-2,2.6238737E-1,9.715242E-4,2.9816303E-1,-2.7677438E-3,2.8020998E-3,1.5778281E-3,1.6104845E-2],"categories":[],"categories_nodes":[],"categories_segments":[],"categories_sizes":[],"default_left":[0,0,0,0,0,0,0,0,0],"id":41,"left_children":[1,-1,3,5,7,-1,-1,-1,-1],"loss_changes":[3.0713303E0,0E0,1.9361997E-1,3.8859706E-2,6.6144586E-2,0E0,0E0,0E0,0E0],"parents":[2147483647,0,0,2,2,3,3,4,4],"right_children":[2,-1,4,6,8,-1,-1,-1,-1],"split_conditions":[7.6E1,-1.6496288E-2,1.4E1,8.3E1,4.9555557E1,-2.7677438E-3,2.8020998E-3,1.5778281E-3,1.6104845E-2],"split_indices":[6,0,0,6,5,0,0,0,0],"split_type":[0,0,0,0,0,0,0,0,0],"sum_hessian":[2.5953299E1,1.0095578E1,1.5857721E1,2.5271792E0,1.3330542E1,1.236578E0,1.2906013E0,2.0530849E0,1.1277457E1],"tree_param":{"num_deleted":"0","num_feature":"24","num_nodes":"9","size_leaf_vector":"1"}},{"base_weights":[-2.1033006E-2,-3.0606642E-1,2.6179338E-1,-1.7585246E-2,1.3216302E-3,2.1427896E-4,2.802706E-1,1.5392068E-2,2.0606269E-3],"categories":[],"categories_nodes":[],"categories_segments":[],"categories_sizes":[],"default_left":[0,0,0,0,0,0,0,0,0],"id":42,"left_children":[1,3,5,-1,-1,-1,7,-1,-1],"loss_changes":[2.7349277E0,3.0030847E-1,7.597172E-2,0E0,0E0,0E0,4.2009115E-2,0E0,0E0],"parents":[2147483647,0,0,1,1,2,2,6,6],"right_children":[2,4,6,-1,-1,-1,8,-1,-1],"split_conditions":[1E1,8E1,7.7E1,-1.7585246E-2,1.3216302E-3,2.1427896E-4,2.6315E-1,1.5392068E-2,2.0606269E-3],"split_indices":[2,6,6,0,0,0,13,0,0],"split_type":[0,0,0,0,0,0,0,0,0],"sum_hessian":[2.395612E1,1.1726877E1,1.2229242E1,1.0057574E1,1.6693028E0,1.2311426E0,1.0998099E1,8.5709715E0,2.427128E0],"tree_param":{"num_deleted":"0","num_feature":"24","num_nodes":"9","size_leaf_vector":"1"}},{"base_weights":[-5.8004923E-2,-3.3250967E-1,2.0601329E-1,-1.731404E-2,-1.8387635E-3,-3.8627882E-3,2.4876918E-1,1.4034586E-2,-3.3826305E-4],"categories":[],"categories_nodes":[],"categories_segments":[],"categories_sizes":[],"default_left":[0,0,0,0,0,0,0,0,0],"id":43,"left_children":[1,3,5,-1,-1,-1,7,-1,-1],"loss_changes":[2.3746452E0,1.0180473E-4,3.0659032E-1,0E0,0E0,0E0,1.4234078E-1,0E0,0E0],"parents":[2147483647,0,0,1,1,2,2,6,6],"right_children":[2,4,6,-1,-1,-1,8,-1,-1],"split_conditions":[9E0,6.5E1,4.2128204E1,-1.731404E-2,-1.8387635E-3,-3.8627882E-3,-4.5445E0,1.4034586E-2,-3.3826305E-4],"split_indices":[2,5,5,0,0,0,11,0,0],"split_type":[0,0,0,0,0,0,0,0,0],"sum_hessian":[2.3039454E1,1.0659487E1,1.2379967E1,9.368637E0,1.2908496E0,1.0944465E0,1.128552E1,9.594662E0,1.6908584E0],"tree_param":{"num_deleted":"0","num_feature":"24","num_nodes":"9","size_leaf_vector":"1"}},{"base_weights":[4.729786E-3,-1.6667185E-2,2.516974E-1,-5.908602E-2,3.100708E-1,1.1618625E-3,-4.6802866E-3,3.703162E-5,1.6855082E-2],"categories":[],"categories_nodes":[],"categories_segments":[],"categories_sizes":[],"default_left":[0,0,0,0,0,0,0,0,0],"id":44,"left_children":[1,-1,3,5,7,-1,-1,-1,-1],"loss_changes":[2.9441054E0,0E0,4.6027243E-1,3.1942155E-2,1.4849436E-1,0E0,0E0,0E0,0E0],"parents":[2147483647,0,0,2,2,3,3,4,4],"right_children":[2,-1,4,6,8,-1,-1,-1,-1],"split_conditions":[7.6E1,-1.6667185E-2,5.5083332E1,1.1943657E2,9E0,1.1618625E-3,-4.6802866E-3,3.703162E-5,1.6855082E-2],"split_indices":[6,0,5,17,2,0,0,0,0],"split_type":[0,0,0,0,0,0,0,0,0],"sum_hessian":[2.5237156E1,9.915338E0,1.5321819E1,2.413132E0,1.2908688E1,1.1957324E0,1.2173996E0,1.450197E0,1.145849E1],"tree_param":{"num_deleted":"0","num_feature":"24","num_nodes":"9","size_leaf_vector":"1"}},{"base_weights":[-5.6330343E-3,-2.5879487E-1,3.120594E-1,-1.7629048E-2,8.628722E-2,1.3623943E-3,1.647281E-2,-1.142646E-4,5.201644E-3],"categories":[],"categories_nodes":[],"categories_segments":[],"categories_sizes":[],"default_left":[0,0,0,0,0,0,0,0,0],"id":45,"left_children":[1,3,5,-1,7,-1,-1,-1,-1],"loss_changes":[2.7350972E0,7.626531E-1,3.0039549E-2,0E0,1.3838913E-2,0E0,0E0,0E0,0E0],"parents":[2147483647,0,0,1,1,2,2,4,4],"right_children":[2,4,6,-1,8,-1,-1,-1,-1],"split_conditions":[2E1,8E1,2.3E1,-1.7629048E-2,7.1E1,1.3623943E-3,1.647281E-2,-1.142646E-4,5.201644E-3],"split_indices":[0,6,0,0,5,0,0,0,0],"split_type":[0,0,0,0,0,0,0,0,0],"sum_hessian":[2.3986322E1,1.3864765E1,1.0121556E1,1.0816434E1,3.0483317E0,1.3212953E0,8.8002615E0,1.235879E0,1.8124529E0],"tree_param":{"num_deleted":"0","num_feature":"24","num_nodes":"9","size_leaf_vector":"1"}},{"base_weights":[1.9532314E-3,-1.6211387E-2,2.5969973E-1,-1.8720642E-3,3.032642E-1,1.1383173E-4,1.6290868E-2],"categories":[],"categories_nodes":[],"categories_segments":[],"categories_sizes":[],"default_left":[0,0,0,0,0,0,0],"id":46,"left_children":[1,-1,3,-1,5,-1,-1],"loss_changes":[2.925203E0,0E0,3.0809414E-1,0E0,1.14961505E-1,0E0,0E0],"parents":[2147483647,0,0,2,2,4,4],"right_children":[2,-1,4,-1,6,-1,-1],"split_conditions":[7.7E1,-1.6211387E-2,1.5E1,-1.8720642E-3,1.4849242E1,1.1383173E-4,1.6290868E-2],"split_indices":[6,0,0,0,7,0,0],"split_type":[0,0,0,0,0,0,0],"sum_hessian":[2.4786304E1,1.0371455E1,1.4414848E1,1.9330215E0,1.2481827E1,1.2537938E0,1.1228033E1],"tree_param":{"num_deleted":"0","num_feature":"24","num_nodes":"7","size_leaf_vector":"1"}},{"base_weights":[7.6466957E-3,-1.6099479E-2,2.6684204E-1,2.9728663E-1,-1.8008043E-3,1.5955156E-3,1.5963139E-2],"categories":[],"categories_nodes":[],"categories_segments":[],"categories_sizes":[],"default_left":[0,0,0,0,0,0,0],"id":47,"left_children":[1,-1,3,5,-1,-1,-1],"loss_changes":[2.9608808E0,0E0,2.3166788E-1,5.4590344E-2,0E0,0E0,0E0],"parents":[2147483647,0,0,2,2,3,3],"right_children":[2,-1,4,6,-1,-1,-1],"split_conditions":[7.7E1,-1.6099479E-2,2.2533333E-1,4.9555557E1,-1.8008043E-3,1.5955156E-3,1.5963139E-2],"split_indices":[6,0,15,5,0,0,0],"split_type":[0,0,0,0,0,0,0],"sum_hessian":[2.4626331E1,1.03069515E1,1.4319379E1,1.3094996E1,1.224383E0,1.9391173E0,1.1155879E1],"tree_param":{"num_deleted":"0","num_feature":"24","num_nodes":"7","size_leaf_vector":"1"}},{"base_weights":[-2.6944961E-2,-2.952141E-1,2.6799038E-1,-1.659619E-2,1.818014E-3,2.5161463E-4,2.9107332E-1,1.1649705E-3,1.5142652E-2],"categories":[],"categories_nodes":[],"categories_segments":[],"categories_sizes":[],"default_left":[0,0,0,0,0,0,0,0,0],"id":48,"left_children":[1,3,5,-1,-1,-1,7,-1,-1],"loss_changes":[2.589945E0,2.660843E-1,8.8769436E-2,0E0,0E0,0E0,1.0348082E-2,0E0,0E0],"parents":[2147483647,0,0,1,1,2,2,6,6],"right_children":[2,4,6,-1,-1,-1,8,-1,-1],"split_conditions":[1E1,8.3E1,5.708E-2,-1.659619E-2,1.818014E-3,2.5161463E-4,4.3246445E-1,1.1649705E-3,1.5142652E-2],"split_indices":[2,6,12,0,0,0,8,0,0],"split_type":[0,0,0,0,0,0,0,0,0],"sum_hessian":[2.2734016E1,1.1902731E1,1.0831285E1,1.071155E1,1.1911806E0,1.3655174E0,9.465769E0,1.0262786E0,8.439489E0],"tree_param":{"num_deleted":"0","num_feature":"24","num_nodes":"9","size_leaf_vector":"1"}},{"base_weights":[1.4689105E-2,-3.1069285E-1,2.7049214E-1,-1.6314713E-2,-1.8242188E-3,3.1126836E-1,-4.3495595E-3,1.8599955E-3,1.6721955E-2,2.7495865E-3,-2.8337527E-3],"categories":[],"categories_nodes":[],"categories_segments":[],"categories_sizes":[],"default_left":[0,0,0,0,0,0,0,0,0,0,0],"id":49,"left_children":[1,3,5,-1,-1,7,9,-1,-1,-1,-1],"loss_changes":[2.890587E0,6.3180923E-3,2.2294831E-1,0E0,0E0,4.4902325E-2,3.8632847E-2,0E0,0E0,0E0,0E0],"parents":[2147483647,0,0,1,1,2,2,5,5,6,6],"right_children":[2,4,6,-1,-1,8,10,-1,-1,-1,-1],"split_conditions":[9E0,8.608491E-1,1.99E-1,-1.6314713E-2,-1.8242188E-3,4.777487E-1,1.1840033E2,1.8599955E-3,1.6721955E-2,2.7495865E-3,-2.8337527E-3],"split_indices":[2,8,15,0,0,8,17,0,0,0,0],"split_type":[0,0,0,0,0,0,0,0,0,0,0],"sum_hessian":[2.4680138E1,1.0390505E1,1.4289633E1,8.9325285E0,1.4579756E0,1.1866417E1,2.4232159E0,1.9405468E0,9.92587E0,1.0161014E0,1.4071145E0],"tree_param":{"num_deleted":"0","num_feature":"24","num_nodes":"11","size_leaf_vector":"1"}},{"base_weights":[7.0262766E-3,-2.3020655E-1,3.218991E-1,-2.742677E-1,2.589952E-3,2.618379E-4,1.7661562E-2,8.322101E-4,-1.4982526E-2],"categories":[],"categories_nodes":[],"categories_segments":[],"categories_sizes":[],"default_left":[0,0,0,0,0,0,0,0,0],"id":50,"left_children":[1,3,5,7,-1,-1,-1,-1,-1],"loss_changes":[2.6379344E0,3.2236052E-1,1.4084399E-1,1.599772E-1,0E0,0E0,0E0,0E0,0E0],"parents":[2147483647,0,0,1,1,2,2,3,3],"right_children":[2,4,6,8,-1,-1,-1,-1,-1],"split_conditions":[2.2E1,7.2666664E1,4.3333332E1,4.1722223E-1,2.589952E-3,2.618379E-4,1.7661562E-2,8.322101E-4,-1.4982526E-2],"split_indices":[0,5,5,9,0,0,0,0,0],"split_type":[0,0,0,0,0,0,0,0,0],"sum_hessian":[2.5354397E1,1.5226689E1,1.0127707E1,1.3287773E1,1.9389161E0,1.4372865E0,8.69042E0,1.20449E0,1.2083283E1],"tree_param":{"num_deleted":"0","num_feature":"24","num_nodes":"9","size_leaf_vector":"1"}},{"base_weights":[-2.291304E-2,-1.5229054E-2,2.1933107E-1,-1.7650955E-3,2.4500284E-1,1.3113292E-2,1.4315818E-3],"categories":[],"categories_nodes":[],"categories_segments":[],"categories_sizes":[],"default_left":[0,0,0,0,0,0,0],"id":51,"left_children":[1,-1,3,-1,5,-1,-1],"loss_changes":[2.2656734E0,0E0,1.6173851E-1,0E0,2.6313543E-2,0E0,0E0],"parents":[2147483647,0,0,2,2,4,4],"right_children":[2,-1,4,-1,6,-1,-1],"split_conditions":[9E0,-1.5229054E-2,7.7E1,-1.7650955E-3,2.1275E-1,1.3113292E-2,1.4315818E-3],"split_indices":[2,0,6,0,15,0,0],"split_type":[0,0,0,0,0,0,0],"sum_hessian":[2.3309896E1,1.0183005E1,1.3126892E1,1.0304492E0,1.2096443E1,1.0220458E1,1.8759851E0],"tree_param":{"num_deleted":"0","num_feature":"24","num_nodes":"7","size_leaf_vector":"1"}},{"base_weights":[5.6982273E-3,-3.0121624E-1,2.4587369E-1,-1.573729E-2,-1.4178107E-3,-1.875462E-2,2.9401582E-1,2.4629193E-3,-3.5208673E-3,-1.1812065E-4,1.5937565E-2],"categories":[],"categories_nodes":[],"categories_segments":[],"categories_sizes":[],"default_left":[0,0,0,0,0,0,0,0,0,0,0],"id":52,"left_children":[1,3,5,-1,-1,7,9,-1,-1,-1,-1],"loss_changes":[2.4607372E0,9.6309185E-3,2.653216E-1,0E0,0E0,4.3951653E-2,1.2171745E-1,0E0,0E0,0E0,0E0],"parents":[2147483647,0,0,1,1,2,2,5,5,6,6],"right_children":[2,4,6,-1,-1,8,10,-1,-1,-1,-1],"split_conditions":[8E0,6.521429E1,5.954323E-1,-1.573729E-2,-1.4178107E-3,5.1483333E-1,5.495E-2,2.4629193E-3,-3.5208673E-3,-1.1812065E-4,1.5937565E-2],"split_indices":[2,5,8,0,0,16,12,0,0,0,0],"split_type":[0,0,0,0,0,0,0,0,0,0,0],"sum_hessian":[2.3358932E1,9.696831E0,1.3662102E1,8.507463E0,1.1893668E0,2.5726857E0,1.10894165E1,1.2110533E0,1.3616326E0,1.2025868E0,9.886829E0],"tree_param":{"num_deleted":"0","num_feature":"24","num_nodes":"11","size_leaf_vector":"1"}},{"base_weights":[2.5548877E-2,-1.4789029E-2,2.5109702E-1,-1.0766139E-3,2.7687088E-1,7.326408E-4,1.4928119E-2],"categories":[],"categories_nodes":[],"categories_segments":[],"categories_sizes":[],"default_left":[0,0,0,0,0,0,0],"id":53,"left_children":[1,-1,3,-1,5,-1,-1],"loss_changes":[2.4700713E0,0E0,1.6836786E-1,0E0,8.265066E-2,0E0,0E0],"parents":[2147483647,0,0,2,2,4,4],"right_children":[2,-1,4,-1,6,-1,-1],"split_conditions":[7.6E1,-1.4789029E-2,4.69E-2,-1.0766139E-3,4.9555557E1,7.326408E-4,1.4928119E-2],"split_indices":[6,0,12,0,5,0,0],"split_type":[0,0,0,0,0,0,0],"sum_hessian":[2.3957783E1,9.238762E0,1.4719022E1,1.3423903E0,1.3376631E1,1.6620817E0,1.1714549E1],"tree_param":{"num_deleted":"0","num_feature":"24","num_nodes":"7","size_leaf_vector":"1"}},{"base_weights":[6.7641987E-3,-1.4990109E-2,2.2009669E-1,-1.428009E-3,2.4576056E-1,-2.0643094E-4,1.3384737E-2],"categories":[],"categories_nodes":[],"categories_segments":[],"categories_sizes":[],"default_left":[0,0,0,0,0,0,0],"id":54,"left_children":[1,-1,3,-1,5,-1,-1],"loss_changes":[2.2587743E0,0E0,1.6447443E-1,0E0,1.0910809E-1,0E0,0E0],"parents":[2147483647,0,0,2,2,4,4],"right_children":[2,-1,4,-1,6,-1,-1],"split_conditions":[7.6E1,-1.4990109E-2,9E0,-1.428009E-3,4.3333332E1,-2.0643094E-4,1.3384737E-2],"split_indices":[6,0,2,0,5,0,0],"split_type":[0,0,0,0,0,0,0],"sum_hessian":[2.4492813E1,9.218648E0,1.5274166E1,1.3761727E0,1.3897993E1,1.448989E0,1.2449004E1],"tree_param":{"num_deleted":"0","num_feature":"24","num_nodes":"7","size_leaf_vector":"1"}},{"base_weights":[-1.466432E-2,-1.4662335E-2,1.9849674E-1,-1.1153409E-2,2.4460545E-1,-5.0760414E-3,4.97917E-3,1.3812973E-2,-1.7633636E-3],"categories":[],"categories_nodes":[],"categories_segments":[],"categories_sizes":[],"default_left":[0,0,0,0,0,0,0,0,0],"id":55,"left_children":[1,-1,3,5,7,-1,-1,-1,-1],"loss_changes":[1.999772E0,0E0,2.0004553E-1,1.3319036E-1,1.9067985E-1,0E0,0E0,0E0,0E0],"parents":[2147483647,0,0,2,2,3,3,4,4],"right_children":[2,-1,4,6,8,-1,-1,-1,-1],"split_conditions":[7.7E1,-1.4662335E-2,5.6333332E1,7.915E-1,2.0875E-1,-5.0760414E-3,4.97917E-3,1.3812973E-2,-1.7633636E-3],"split_indices":[6,0,5,10,15,0,0,0,0],"split_type":[0,0,0,0,0,0,0,0,0],"sum_hessian":[2.3774763E1,9.491587E0,1.4283175E1,3.2583625E0,1.1024813E1,2.0233314E0,1.235031E0,9.962583E0,1.06223E0],"tree_param":{"num_deleted":"0","num_feature":"24","num_nodes":"9","size_leaf_vector":"1"}},{"base_weights":[-2.0352535E-2,-2.8082615E-1,1.950735E-1,-1.4807681E-2,-8.4057E-4,-1.4917961E-2,2.3530778E-1,3.008914E-3,-3.9864387E-3,4.895925E-4,1.2411011E-2],"categories":[],"categories_nodes":[],"categories_segments":[],"categories_sizes":[],"default_left":[0,0,0,0,0,0,0,0,0,0,0],"id":56,"left_children":[1,3,5,-1,-1,7,9,-1,-1,-1,-1],"loss_changes":[1.7533176E0,3.1695485E-2,1.6439909E-1,0E0,0E0,6.047599E-2,3.1189382E-2,0E0,0E0,0E0,0E0],"parents":[2147483647,0,0,1,1,2,2,5,5,6,6],"right_children":[2,4,6,-1,-1,8,10,-1,-1,-1,-1],"split_conditions":[8E0,6.4666664E1,5.34407E-1,-1.4807681E-2,-8.4057E-4,4.8016667E-2,5.874E-2,3.008914E-3,-3.9864387E-3,4.895925E-4,1.2411011E-2],"split_indices":[2,5,8,0,0,12,12,0,0,0,0],"split_type":[0,0,0,0,0,0,0,0,0,0,0],"sum_hessian":[2.1364908E1,8.984157E0,1.2380752E1,7.915938E0,1.068219E0,2.4965944E0,9.884157E0,1.3220847E0,1.1745099E0,1.0114148E0,8.872743E0],"tree_param":{"num_deleted":"0","num_feature":"24","num_nodes":"11","size_leaf_vector":"1"}},{"base_weights":[-4.155275E-2,-2.834304E-1,1.7127207E-1,-1.5492149E-2,-2.534679E-4,-4.5296606E-3,2.4139848E-1,8.968506E-4,1.2702665E-2],"categories":[],"categories_nodes":[],"categories_segments":[],"categories_sizes":[],"default_left":[0,0,0,0,0,0,0,0,0],"id":57,"left_children":[1,3,5,-1,-1,-1,7,-1,-1],"loss_changes":[1.6122826E0,9.754741E-2,4.2647022E-1,0E0,0E0,0E0,1.9593E-2,0E0,0E0],"parents":[2147483647,0,0,1,1,2,2,6,6],"right_children":[2,4,6,-1,-1,-1,8,-1,-1],"split_conditions":[5.5083332E1,8E1,1E1,-1.5492149E-2,-2.534679E-4,-4.5296606E-3,1.1666667E-1,8.968506E-4,1.2702665E-2],"split_indices":[5,6,0,0,0,0,15,0,0],"split_type":[0,0,0,0,0,0,0,0,0],"sum_hessian":[2.1605066E1,9.335921E0,1.2269145E1,8.010363E0,1.3255585E0,2.2833622E0,9.985783E0,1.1830072E0,8.802775E0],"tree_param":{"num_deleted":"0","num_feature":"24","num_nodes":"9","size_leaf_vector":"1"}},{"base_weights":[-2.1883676E-2,-2.564626E-1,2.2431713E-1,-2.952284E-1,1.222451E-3,-5.187722E-4,2.5361305E-1,-1.5417702E-2,-1.2320296E-3,1.333704E-2,9.1856765E-4],"categories":[],"categories_nodes":[],"categories_segments":[],"categories_sizes":[],"default_left":[0,0,0,0,0,0,0,0,0,0,0],"id":58,"left_children":[1,3,5,7,-1,-1,9,-1,-1,-1,-1],"loss_changes":[1.809299E0,2.0842052E-1,1.1988151E-1,1.2756944E-2,0E0,0E0,1.8721461E-2,0E0,0E0,0E0,0E0],"parents":[2147483647,0,0,1,1,2,2,3,3,6,6],"right_children":[2,4,6,8,-1,-1,10,-1,-1,-1,-1],"split_conditions":[1E1,8E1,1.7E1,6.3333332E1,1.222451E-3,-5.187722E-4,3.1116667E-1,-1.5417702E-2,-1.2320296E-3,1.333704E-2,9.1856765E-4],"split_indices":[2,6,0,5,0,0,13,0,0,0,0],"split_type":[0,0,0,0,0,0,0,0,0,0,0],"sum_hessian":[2.1347383E1,1.0824986E1,1.0522397E1,9.288365E0,1.5366207E0,1.5260729E0,8.996325E0,8.193082E0,1.0952836E0,7.8866987E0,1.1096252E0],"tree_param":{"num_deleted":"0","num_feature":"24","num_nodes":"11","size_leaf_vector":"1"}},{"base_weights":[3.8570404E-2,-2.4580872E-1,2.4622943E-1,-1.3464272E-2,3.9858138E-4,2.9763094E-1,-3.0146425E-3,1.1253228E-3,1.7210659E-2],"categories":[],"categories_nodes":[],"categories_segments":[],"categories_sizes":[],"default_left":[0,0,0,0,0,0,0,0,0],"id":59,"left_children":[1,3,5,-1,-1,7,-1,-1,-1],"loss_changes":[2.0028706E0,9.803599E-2,3.9126062E-1,0E0,0E0,1.8210852E-1,0E0,0E0,0E0],"parents":[2147483647,0,0,1,1,2,2,5,5],"right_children":[2,4,6,-1,-1,8,-1,-1,-1],"split_conditions":[1.4E1,8.2E1,2.1275E-1,-1.3464272E-2,3.9858138E-4,5.45E1,-3.0146425E-3,1.1253228E-3,1.7210659E-2],"split_indices":[0,6,15,0,0,5,0,0,0],"split_type":[0,0,0,0,0,0,0,0,0],"sum_hessian":[2.3791393E1,9.653213E0,1.4138181E1,8.556212E0,1.0970004E0,1.2232E1,1.9061801E0,2.8449423E0,9.387058E0],"tree_param":{"num_deleted":"0","num_feature":"24","num_nodes":"9","size_leaf_vector":"1"}},{"base_weights":[-3.9552465E-2,-2.3733649E-1,1.8666694E-1,-1.4239172E-2,1.5018026E-2,2.3661654E-1,-3.4968373E-3,-2.477923E-3,3.2991641E-3,-1.0852057E-4,1.3032386E-2],"categories":[],"categories_nodes":[],"categories_segments":[],"categories_sizes":[],"default_left":[0,0,0,0,0,0,0,0,0,0,0],"id":60,"left_children":[1,3,5,-1,7,9,-1,-1,-1,-1,-1],"loss_changes":[1.4181967E0,2.1859986E-1,2.785229E-1,0E0,4.056077E-2,8.274454E-2,0E0,0E0,0E0,0E0,0E0],"parents":[2147483647,0,0,1,1,2,2,4,4,5,5],"right_children":[2,4,6,-1,8,10,-1,-1,-1,-1,-1],"split_conditions":[1.7E1,6.54E1,1.241625E-1,-1.4239172E-2,1E1,5.52E-2,-3.4968373E-3,-2.477923E-3,3.2991641E-3,-1.0852057E-4,1.3032386E-2],"split_indices":[0,5,12,0,0,12,0,0,0,0,0],"split_type":[0,0,0,0,0,0,0,0,0,0,0],"sum_hessian":[2.1745935E1,1.1471056E1,1.0274879E1,9.114793E0,2.3562639E0,8.926695E0,1.3481845E0,1.1002222E0,1.2560415E0,1.2321179E0,7.6945767E0],"tree_param":{"num_deleted":"0","num_feature":"24","num_nodes":"11","size_leaf_vector":"1"}},{"base_weights":[1.0410733E-2,-1.349911E-2,2.2232048E-1,2.6655903E-1,-3.2589674E-2,-6.3002284E-5,1.4365491E-2,-4.1111554E-3,2.168616E-3],"categories":[],"categories_nodes":[],"categories_segments":[],"categories_sizes":[],"default_left":[0,0,0,0,0,0,0,0,0],"id":61,"left_children":[1,-1,3,5,7,-1,-1,-1,-1],"loss_changes":[1.8954058E0,0E0,2.4679977E-1,9.023845E-2,4.4683382E-2,0E0,0E0,0E0,0E0],"parents":[2147483647,0,0,2,2,3,3,4,4],"right_children":[2,-1,4,6,8,-1,-1,-1,-1],"split_conditions":[7.6E1,-1.349911E-2,1.9703333E-1,6E0,8.3E1,-6.3002284E-5,1.4365491E-2,-4.1111554E-3,2.168616E-3],"split_indices":[6,0,15,1,6,0,0,0,0],"split_type":[0,0,0,0,0,0,0,0,0],"sum_hessian":[2.184865E1,8.814861E0,1.303379E1,1.0911632E1,2.1221573E0,1.1223577E0,9.789274E0,1.0342551E0,1.0879023E0],"tree_param":{"num_deleted":"0","num_feature":"24","num_nodes":"9","size_leaf_vector":"1"}},{"base_weights":[-4.2667348E-2,-2.6191834E-1,1.8519738E-1,-1.4071466E-2,-5.4546766E-4,-2.8514198E-3,2.3713617E-1,-2.660924E-5,1.3009998E-2],"categories":[],"categories_nodes":[],"categories_segments":[],"categories_sizes":[],"default_left":[0,0,0,0,0,0,0,0,0],"id":62,"left_children":[1,3,5,-1,-1,-1,7,-1,-1],"loss_changes":[1.5050753E0,5.7865977E-2,2.6037198E-1,0E0,0E0,0E0,7.516104E-2,0E0,0E0],"parents":[2147483647,0,0,1,1,2,2,6,6],"right_children":[2,4,6,-1,-1,-1,8,-1,-1],"split_conditions":[1E1,8E1,4.9555557E1,-1.4071466E-2,-5.4546766E-4,-2.8514198E-3,1.175E-1,-2.660924E-5,1.3009998E-2],"split_indices":[2,6,5,0,0,0,15,0,0],"split_type":[0,0,0,0,0,0,0,0,0],"sum_hessian":[2.0271282E1,9.950091E0,1.0321191E1,8.670195E0,1.2798967E0,1.7358383E0,8.585353E0,1.1915258E0,7.393827E0],"tree_param":{"num_deleted":"0","num_feature":"24","num_nodes":"9","size_leaf_vector":"1"}},{"base_weights":[6.769376E-4,-2.3963037E-1,2.2304268E-1,-1.4132867E-2,9.372015E-4,-1.2429055E-3,2.5136414E-1,1.3849894E-2,1.2483977E-3],"categories":[],"categories_nodes":[],"categories_segments":[],"categories_sizes":[],"default_left":[0,0,0,0,0,0,0,0,0],"id":63,"left_children":[1,3,5,-1,-1,-1,7,-1,-1],"loss_changes":[1.7523773E0,2.017833E-1,1.5077245E-1,0E0,0E0,0E0,5.6702554E-2,0E0,0E0],"parents":[2147483647,0,0,1,1,2,2,6,6],"right_children":[2,4,6,-1,-1,-1,8,-1,-1],"split_conditions":[1E1,8E1,4.3333332E1,-1.4132867E-2,9.372015E-4,-1.2429055E-3,2.7024287E-1,1.3849894E-2,1.2483977E-3],"split_indices":[2,6,5,0,0,0,13,0,0],"split_type":[0,0,0,0,0,0,0,0,0],"sum_hessian":[2.279278E1,1.0767885E1,1.2024896E1,8.8278675E0,1.9400177E0,1.2956201E0,1.0729275E1,8.634128E0,2.0951476E0],"tree_param":{"num_deleted":"0","num_feature":"24","num_nodes":"9","size_leaf_vector":"1"}},{"base_weights":[1.5616309E-2,-2.2314274E-1,2.2793604E-1,-1.331494E-2,9.419517E-3,2.6180547E-1,-1.4442317E-3,-2.1770883E-3,2.819901E-3,-1.1558958E-3,1.4985906E-2],"categories":[],"categories_nodes":[],"categories_segments":[],"categories_sizes":[],"default_left":[0,0,0,0,0,0,0,0,0,0,0],"id":64,"left_children":[1,3,5,-1,7,9,-1,-1,-1,-1,-1],"loss_changes":[1.6685191E0,1.6968977E-1,1.8776792E-1,0E0,3.0391179E-2,2.0453954E-1,0E0,0E0,0E0,0E0,0E0],"parents":[2147483647,0,0,1,1,2,2,4,4,5,5],"right_children":[2,4,6,-1,8,10,-1,-1,-1,-1,-1],"split_conditions":[1E1,6.35E1,1.241625E-1,-1.331494E-2,1E1,5.52E-2,-1.4442317E-3,-2.1770883E-3,2.819901E-3,-1.1558958E-3,1.4985906E-2],"split_indices":[2,5,12,0,0,12,0,0,0,0,0],"split_type":[0,0,0,0,0,0,0,0,0,0,0],"sum_hessian":[2.2897352E1,1.06576605E1,1.2239691E1,8.377706E0,2.2799551E0,1.0727857E1,1.5118341E0,1.2436744E0,1.0362808E0,1.4889752E0,9.238882E0],"tree_param":{"num_deleted":"0","num_feature":"24","num_nodes":"11","size_leaf_vector":"1"}},{"base_weights":[1.316928E-2,-1.3847291E-2,2.201059E-1,-2.9647925E-3,2.5643954E-1,1.4406934E-2,-1.2798302E-3],"categories":[],"categories_nodes":[],"categories_segments":[],"categories_sizes":[],"default_left":[0,0,0,0,0,0,0],"id":65,"left_children":[1,-1,3,-1,5,-1,-1],"loss_changes":[1.8773226E0,0E0,2.5951308E-1,0E0,1.8826652E-1,0E0,0E0],"parents":[2147483647,0,0,2,2,4,4],"right_children":[2,-1,4,-1,6,-1,-1],"split_conditions":[7.6E1,-1.3847291E-2,1.1E1,-2.9647925E-3,-4.8095E0,1.4406934E-2,-1.2798302E-3],"split_indices":[6,0,0,0,11,0,0],"split_type":[0,0,0,0,0,0,0],"sum_hessian":[2.1193457E1,8.119188E0,1.3074268E1,1.140906E0,1.1933362E1,1.06303835E1,1.3029788E0],"tree_param":{"num_deleted":"0","num_feature":"24","num_nodes":"7","size_leaf_vector":"1"}},{"base_weights":[-2.4765655E-2,-1.2689118E-2,1.6532123E-1,-3.066052E-2,2.1539705E-1,-3.8724032E-3,1.6798181E-3,2.5610959E-3,1.23394355E-2],"categories":[],"categories_nodes":[],"categories_segments":[],"categories_sizes":[],"default_left":[0,0,0,0,0,0,0,0,0],"id":66,"left_children":[1,-1,3,5,7,-1,-1,-1,-1],"loss_changes":[1.3317143E0,0E0,2.0094404E-1,3.6637936E-2,1.0243177E-2,0E0,0E0,0E0,0E0],"parents":[2147483647,0,0,2,2,3,3,4,4],"right_children":[2,-1,4,6,8,-1,-1,-1,-1],"split_conditions":[7.7E1,-1.2689118E-2,5.812102E-1,7.5368634E-3,9.94E-5,-3.8724032E-3,1.6798181E-3,2.5610959E-3,1.23394355E-2],"split_indices":[6,0,8,14,14,0,0,0,0],"split_type":[0,0,0,0,0,0,0,0,0],"sum_hessian":[2.0772043E1,8.661381E0,1.2110662E1,2.8592E0,9.251463E0,1.0605431E0,1.7986571E0,3.5971682E0,5.6542945E0],"tree_param":{"num_deleted":"0","num_feature":"24","num_nodes":"9","size_leaf_vector":"1"}},{"base_weights":[-2.5956579E-2,-2.4707125E-1,1.8209533E-1,-1.4508854E-2,9.0048305E-4,-3.016478E-3,2.2011845E-1,1.1917865E-2,1.0323127E-3],"categories":[],"categories_nodes":[],"categories_segments":[],"categories_sizes":[],"default_left":[0,0,0,0,0,0,0,0,0],"id":67,"left_children":[1,3,5,-1,-1,-1,7,-1,-1],"loss_changes":[1.4312139E0,1.9561988E-1,2.1746004E-1,0E0,0E0,0E0,3.0846119E-2,0E0,0E0],"parents":[2147483647,0,0,1,1,2,2,6,6],"right_children":[2,4,6,-1,-1,-1,8,-1,-1],"split_conditions":[1E1,6.4666664E1,4.3333332E1,-1.4508854E-2,9.0048305E-4,-3.016478E-3,1.2526181E-1,1.1917865E-2,1.0323127E-3],"split_indices":[2,5,5,0,0,0,12,0,0],"split_type":[0,0,0,0,0,0,0,0,0],"sum_hessian":[2.1221172E1,9.833032E0,1.1388141E1,8.050536E0,1.7824962E0,1.1463101E0,1.0241831E1,8.490772E0,1.7510586E0],"tree_param":{"num_deleted":"0","num_feature":"24","num_nodes":"9","size_leaf_vector":"1"}},{"base_weights":[-1.4365572E-2,-2.4375449E-1,2.0155779E-1,-1.35171935E-2,-4.585365E-4,-3.2158957E-3,2.4689469E-1,5.0268084E-4,1.32071525E-2],"categories":[],"categories_nodes":[],"categories_segments":[],"categories_sizes":[],"default_left":[0,0,0,0,0,0,0,0,0],"id":68,"left_children":[1,3,5,-1,-1,-1,7,-1,-1],"loss_changes":[1.5259248E0,7.989532E-2,2.7288675E-1,0E0,0E0,0E0,4.696423E-2,0E0,0E0],"parents":[2147483647,0,0,1,1,2,2,6,6],"right_children":[2,4,6,-1,-1,-1,8,-1,-1],"split_conditions":[1E1,6.35E1,4.65E1,-1.35171935E-2,-4.585365E-4,-3.2158957E-3,1.1666667E-1,5.0268084E-4,1.32071525E-2],"split_indices":[2,5,5,0,0,0,15,0,0],"split_type":[0,0,0,0,0,0,0,0,0],"sum_hessian":[2.0848186E1,9.796394E0,1.1051793E1,8.114443E0,1.681952E0,1.305053E0,9.746739E0,1.1988894E0,8.547851E0],"tree_param":{"num_deleted":"0","num_feature":"24","num_nodes":"9","size_leaf_vector":"1"}},{"base_weights":[-2.4428535E-3,-1.34420665E-2,1.8150908E-1,6.480797E-3,2.3997006E-1,3.8595402E-3,-2.692408E-3,1.3129241E-2,-2.6591195E-4],"categories":[],"categories_nodes":[],"categories_segments":[],"categories_sizes":[],"default_left":[0,0,0,0,0,0,0,0,0],"id":69,"left_children":[1,-1,3,5,7,-1,-1,-1,-1],"loss_changes":[1.5520178E0,0E0,1.8432689E-1,6.27566E-2,8.4279954E-2,0E0,0E0,0E0,0E0],"parents":[2147483647,0,0,2,2,3,3,4,4],"right_children":[2,-1,4,6,8,-1,-1,-1,-1],"split_conditions":[7.6E1,-1.34420665E-2,2.2E1,4.13E-1,1.241625E-1,3.8595402E-3,-2.692408E-3,1.3129241E-2,-2.6591195E-4],"split_indices":[6,0,0,16,12,0,0,0,0],"split_type":[0,0,0,0,0,0,0,0,0],"sum_hessian":[2.1692072E1,7.91795E0,1.3774122E1,4.8394413E0,8.934682E0,1.584637E0,3.2548041E0,7.8576574E0,1.0770239E0],"tree_param":{"num_deleted":"0","num_feature":"24","num_nodes":"9","size_leaf_vector":"1"}},{"base_weights":[1.338218E-2,-2.3363546E-1,2.0151576E-1,-1.3276725E-2,1.2974417E-3,-3.2798306E-3,2.5681597E-1,1.4050658E-2,-7.055702E-4],"categories":[],"categories_nodes":[],"categories_segments":[],"categories_sizes":[],"default_left":[0,0,0,0,0,0,0,0,0],"id":70,"left_children":[1,3,5,-1,-1,-1,7,-1,-1],"loss_changes":[1.4885917E0,1.5016389E-1,3.5000068E-1,0E0,0E0,0E0,1.2421656E-1,0E0,0E0],"parents":[2147483647,0,0,1,1,2,2,6,6],"right_children":[2,4,6,-1,-1,-1,8,-1,-1],"split_conditions":[5.65E1,1.5E1,1.1E1,-1.3276725E-2,1.2974417E-3,-3.2798306E-3,2.1433334E-1,1.4050658E-2,-7.055702E-4],"split_indices":[5,2,0,0,0,0,15,0,0],"split_type":[0,0,0,0,0,0,0,0,0],"sum_hessian":[2.1966284E1,8.974091E0,1.2992194E1,7.889926E0,1.084165E0,2.0687435E0,1.092345E1,9.856965E0,1.0664848E0],"tree_param":{"num_deleted":"0","num_feature":"24","num_nodes":"9","size_leaf_vector":"1"}},{"base_weights":[-1.0824529E-2,-2.2207922E-1,1.7570743E-1,-2.4134624E-1,-3.118545E-5,2.0640528E-1,-1.3617771E-3,-1.2836595E-2,-8.2203746E-4,1.2112947E-2,-1.3358508E-3],"categories":[],"categories_nodes":[],"categories_segments":[],"categories_sizes":[],"default_left":[0,0,0,0,0,0,0,0,0,0,0],"id":71,"left_children":[1,3,5,7,-1,9,-1,-1,-1,-1,-1],"loss_changes":[1.2675203E0,6.312209E-2,1.3553941E-1,2.6506424E-2,0E0,1.6243052E-1,0E0,0E0,0E0,0E0,0E0],"parents":[2147483647,0,0,1,1,2,2,3,3,5,5],"right_children":[2,4,6,8,-1,10,-1,-1,-1,-1,-1],"split_conditions":[1E1,5E0,1.2526181E-1,8.608491E-1,-3.118545E-5,2.0688261E-1,-1.3617771E-3,-1.2836595E-2,-8.2203746E-4,1.2112947E-2,-1.3358508E-3],"split_indices":[2,4,12,8,0,15,0,0,0,0,0],"split_type":[0,0,0,0,0,0,0,0,0,0,0],"sum_hessian":[2.2214695E1,9.970204E0,1.224449E1,8.759059E0,1.2111452E0,1.0561604E1,1.6828865E0,7.535977E0,1.2230825E0,8.983933E0,1.5776699E0],"tree_param":{"num_deleted":"0","num_feature":"24","num_nodes":"11","size_leaf_vector":"1"}},{"base_weights":[2.5587745E-3,-1.9701108E-1,2.0813648E-1,-1.2926533E-2,2.346802E-2,2.5162965E-1,-3.0772982E-3,-2.4902532E-3,3.5635512E-3,-3.3290702E-4,1.3746642E-2],"categories":[],"categories_nodes":[],"categories_segments":[],"categories_sizes":[],"default_left":[0,0,0,0,0,0,0,0,0,0,0],"id":72,"left_children":[1,3,5,-1,7,9,-1,-1,-1,-1,-1],"loss_changes":[1.2798324E0,2.4547952E-1,2.5731343E-1,0E0,4.592449E-2,9.455317E-2,0E0,0E0,0E0,0E0,0E0],"parents":[2147483647,0,0,1,1,2,2,4,4,5,5],"right_children":[2,4,6,-1,8,10,-1,-1,-1,-1,-1],"split_conditions":[1.7E1,6.15E1,2.0875E-1,-1.2926533E-2,8.718641E0,4.9090908E1,-3.0772982E-3,-2.4902532E-3,3.5635512E-3,-3.3290702E-4,1.3746642E-2],"split_indices":[0,5,15,0,7,5,0,0,0,0,0],"split_type":[0,0,0,0,0,0,0,0,0,0,0],"sum_hessian":[2.1197468E1,1.0861622E1,1.0335845E1,7.817424E0,3.0441983E0,9.188646E0,1.1471983E0,1.1192261E0,1.9249722E0,1.0559646E0,8.132682E0],"tree_param":{"num_deleted":"0","num_feature":"24","num_nodes":"11","size_leaf_vector":"1"}},{"base_weights":[-1.3951117E-2,-2.5276616E-1,1.8067187E-1,-1.433411E-2,1.0941199E-3,-4.405675E-2,2.5404334E-1,-3.8501602E-3,1.5704095E-3,1.3752176E-2,9.022622E-4],"categories":[],"categories_nodes":[],"categories_segments":[],"categories_sizes":[],"default_left":[0,0,0,0,0,0,0,0,0,0,0],"id":73,"left_children":[1,3,5,-1,-1,7,9,-1,-1,-1,-1],"loss_changes":[1.3788211E0,1.5431225E-1,3.289165E-1,0E0,0E0,3.281724E-2,4.069519E-2,0E0,0E0,0E0,0E0],"parents":[2147483647,0,0,1,1,2,2,5,5,6,6],"right_children":[2,4,6,-1,-1,8,10,-1,-1,-1,-1],"split_conditions":[5.5625E1,3.1E1,1.5E1,-1.433411E-2,1.0941199E-3,1.3362E2,1.9703333E-1,-3.8501602E-3,1.5704095E-3,1.3752176E-2,9.022622E-4],"split_indices":[5,0,0,0,0,17,15,0,0,0,0],"split_type":[0,0,0,0,0,0,0,0,0,0,0],"sum_hessian":[1.9752794E1,8.198709E0,1.1554087E1,7.102549E0,1.0961592E0,3.3355043E0,8.218582E0,2.2508917E0,1.0846125E0,6.7873716E0,1.4312104E0],"tree_param":{"num_deleted":"0","num_feature":"24","num_nodes":"11","size_leaf_vector":"1"}},{"base_weights":[2.5113856E-2,-1.1732158E-2,1.8949302E-1,-2.42843E-3,2.1729727E-1,-2.2089525E-5,1.1787417E-2],"categories":[],"categories_nodes":[],"categories_segments":[],"categories_sizes":[],"default_left":[0,0,0,0,0,0,0],"id":74,"left_children":[1,-1,3,-1,5,-1,-1],"loss_changes":[1.3385459E0,0E0,1.770531E-1,0E0,7.1736336E-2,0E0,0E0],"parents":[2147483647,0,0,2,2,4,4],"right_children":[2,-1,4,-1,6,-1,-1],"split_conditions":[7.6E1,-1.1732158E-2,1.1E1,-2.42843E-3,4.85E1,-2.2089525E-5,1.1787417E-2],"split_indices":[6,0,0,0,5,0,0],"split_type":[0,0,0,0,0,0,0],"sum_hessian":[2.1142044E1,7.365539E0,1.3776505E1,1.0502427E0,1.2726263E1,1.3754152E0,1.1350847E1],"tree_param":{"num_deleted":"0","num_feature":"24","num_nodes":"7","size_leaf_vector":"1"}},{"base_weights":[1.9396633E-2,-2.2670816E-1,2.2666563E-1,-1.2497263E-2,2.6980133E-4,-2.40151E-3,2.7198675E-1,1.430531E-2,1.2163579E-3],"categories":[],"categories_nodes":[],"categories_segments":[],"categories_sizes":[],"default_left":[0,0,0,0,0,0,0,0,0],"id":75,"left_children":[1,3,5,-1,-1,-1,7,-1,-1],"loss_changes":[1.5624125E0,8.3330035E-2,2.69399E-1,0E0,0E0,0E0,1.7027617E-2,0E0,0E0],"parents":[2147483647,0,0,1,1,2,2,6,6],"right_children":[2,4,6,-1,-1,-1,8,-1,-1],"split_conditions":[1E1,8E1,4.9555557E1,-1.2497263E-2,2.6980133E-4,-2.40151E-3,1.2526181E-1,1.430531E-2,1.2163579E-3],"split_indices":[2,6,5,0,0,0,12,0,0],"split_type":[0,0,0,0,0,0,0,0,0],"sum_hessian":[2.0592636E1,9.199957E0,1.139268E1,8.013366E0,1.1865909E0,1.5711161E0,9.821564E0,8.557489E0,1.2640741E0],"tree_param":{"num_deleted":"0","num_feature":"24","num_nodes":"9","size_leaf_vector":"1"}},{"base_weights":[2.9938115E-2,-1.755087E-1,2.634348E-1,-2.3820363E-1,5.4658808E-2,-6.8275037E-4,1.529066E-2,6.524394E-4,-1.3160931E-2,1.3784603E-4,3.2066049E-3],"categories":[],"categories_nodes":[],"categories_segments":[],"categories_sizes":[],"default_left":[0,0,0,0,0,0,0,0,0,0,0],"id":76,"left_children":[1,3,5,7,9,-1,-1,-1,-1,-1,-1],"loss_changes":[1.5021939E0,3.117876E-1,1.8997759E-1,1.0748124E-1,2.9149298E-3,0E0,0E0,0E0,0E0,0E0,0E0],"parents":[2147483647,0,0,1,1,2,2,3,3,4,4],"right_children":[2,4,6,8,10,-1,-1,-1,-1,-1,-1],"split_conditions":[2E1,8E1,5.15E1,4.1722223E-1,6.87E-1,-6.8275037E-4,1.529066E-2,6.524394E-4,-1.3160931E-2,1.3784603E-4,3.2066049E-3],"split_indices":[0,6,5,9,9,0,0,0,0,0,0],"split_type":[0,0,0,0,0,0,0,0,0,0,0],"sum_hessian":[2.1495478E1,1.2095094E1,9.400383E0,9.36862E0,2.7264743E0,1.6965384E0,7.703845E0,1.0648623E0,8.303758E0,1.4171807E0,1.3092935E0],"tree_param":{"num_deleted":"0","num_feature":"24","num_nodes":"11","size_leaf_vector":"1"}},{"base_weights":[-1.1702402E-2,-1.1479144E-2,1.4936002E-1,-5.1678784E-2,2.0282629E-1,-5.079972E-3,1.7494634E-3,1.1521394E-2,7.1468303E-4],"categories":[],"categories_nodes":[],"categories_segments":[],"categories_sizes":[],"default_left":[0,0,0,0,0,0,0,0,0],"id":77,"left_children":[1,-1,3,5,7,-1,-1,-1,-1],"loss_changes":[1.0322471E0,0E0,2.3656714E-1,5.058679E-2,5.9241414E-2,0E0,0E0,0E0,0E0],"parents":[2147483647,0,0,2,2,3,3,4,4],"right_children":[2,-1,4,6,8,-1,-1,-1,-1],"split_conditions":[7.6E1,-1.1479144E-2,4.777487E-1,1.8485294E-1,2.6315E-1,-5.079972E-3,1.7494634E-3,1.1521394E-2,7.1468303E-4],"split_indices":[6,0,8,15,13,0,0,0,0],"split_type":[0,0,0,0,0,0,0,0,0],"sum_hessian":[1.9529404E1,7.3964987E0,1.2132904E1,2.5839908E0,9.548914E0,1.0930076E0,1.4909832E0,7.3602676E0,2.1886458E0],"tree_param":{"num_deleted":"0","num_feature":"24","num_nodes":"9","size_leaf_vector":"1"}},{"base_weights":[-4.4993266E-2,-2.0357102E-1,1.1259817E-1,-1.11692045E-2,1.6380021E-4,1.8044262E-1,-7.235886E-2,-1.0499674E-3,1.0648742E-2,1.6137989E-3,-6.0023284E-3],"categories":[],"categories_nodes":[],"categories_segments":[],"categories_sizes":[],"default_left":[0,0,0,0,0,0,0,0,0,0,0],"id":78,"left_children":[1,3,5,-1,-1,7,9,-1,-1,-1,-1],"loss_changes":[7.007465E-1,5.886811E-2,2.5329608E-1,0E0,0E0,1.03579044E-1,5.724509E-2,0E0,0E0,0E0,0E0],"parents":[2147483647,0,0,1,1,2,2,5,5,6,6],"right_children":[2,4,6,-1,-1,8,10,-1,-1,-1,-1],"split_conditions":[1.4E1,1.446735E2,1.8183333E-1,-1.11692045E-2,1.6380021E-4,-6.78875E0,1.19964E2,-1.0499674E-3,1.0648742E-2,1.6137989E-3,-6.0023284E-3],"split_indices":[0,17,15,0,0,11,17,0,0,0,0],"split_type":[0,0,0,0,0,0,0,0,0,0,0],"sum_hessian":[1.8454432E1,8.471295E0,9.983135E0,7.3659935E0,1.1053013E0,7.3932457E0,2.5898902E0,1.2744284E0,6.1188173E0,1.3167093E0,1.2731808E0],"tree_param":{"num_deleted":"0","num_feature":"24","num_nodes":"11","size_leaf_vector":"1"}},{"base_weights":[1.248294E-2,-1.7260613E-1,2.2475967E-1,-2.2834529E-1,4.4787433E-2,-1.1667593E-3,2.540249E-1,-1.237593E-2,-8.160134E-4,-1.1415338E-3,3.730439E-3,1.5078172E-3,1.3689947E-2],"categories":[],"categories_nodes":[],"categories_segments":[],"categories_sizes":[],"default_left":[0,0,0,0,0,0,0,0,0,0,0,0,0],"id":79,"left_children":[1,3,5,7,9,-1,11,-1,-1,-1,-1,-1,-1],"loss_changes":[1.1842438E0,2.4855506E-1,1.3064498E-1,3.585106E-2,2.3650315E-2,0E0,1.5664458E-2,0E0,0E0,0E0,0E0,0E0,0E0],"parents":[2147483647,0,0,1,1,2,2,3,3,4,4,6,6],"right_children":[2,4,6,8,10,-1,12,-1,-1,-1,-1,-1,-1],"split_conditions":[2E1,8E1,4.3333332E1,2.8637312E1,8.514E-2,-1.1667593E-3,9.579056E-5,-1.237593E-2,-8.160134E-4,-1.1415338E-3,3.730439E-3,1.5078172E-3,1.3689947E-2],"split_indices":[0,6,5,7,12,0,14,0,0,0,0,0,0],"split_type":[0,0,0,0,0,0,0,0,0,0,0,0,0],"sum_hessian":[2.020404E1,1.1292367E1,8.911673E0,8.78741E0,2.5049574E0,1.0472031E0,7.8644695E0,7.2910686E0,1.4963411E0,1.1253612E0,1.3795962E0,1.6629456E0,6.201524E0],"tree_param":{"num_deleted":"0","num_feature":"24","num_nodes":"13","size_leaf_vector":"1"}}]},"name":"gbtree"},"learner_model_param":{"base_score":"1.3404251E-8","boost_from_average":"1","num_class":"0","num_feature":"24","num_target":"1"},"objective":{"lambdarank_param":{"lambdarank_bias_norm":"1","lambdarank_normalization":"1","lambdarank_num_pair_per_sample":"4294967295","lambdarank_pair_method":"topk","lambdarank_unbiased":"0","ndcg_exp_gain":"1"},"name":"rank:ndcg"}},"version":[2,1,1]}